{"learner":{"attributes":{},"feature_names":["age","sex","height_cm","weight_kg","bmi","asa","emergency","anesthesia_type","department","high_asa","high_asa_emergency","hr_mean","hr_min","hr_max","hr_std","hr_first","hr_last","hr_n","spo2_mean","spo2_min","spo2_max","spo2_std","spo2_first","spo2_last","spo2_n","rr_mean","rr_min","rr_max","rr_std","rr_first","rr_last","rr_n","temp_mean","temp_min","temp_max","temp_std","temp_first","temp_last","temp_n","sbp_max_mean","sbp_max_min","sbp_max_max","sbp_max_std","sbp_max_first","sbp_max_last","sbp_max_n","dbp_max_mean","dbp_max_min","dbp_max_max","dbp_max_std","dbp_max_first","dbp_max_last","dbp_max_n","etco2_mean","etco2_min","etco2_max","etco2_std","etco2_first","etco2_last","etco2_n","fio2_mean","fio2_min","fio2_max","fio2_std","fio2_first","fio2_last","fio2_n","o2_flow_lpm_mean","o2_flow_lpm_min","o2_flow_lpm_max","o2_flow_lpm_std","o2_flow_lpm_first","o2_flow_lpm_last","o2_flow_lpm_n","sbp_art_mean","sbp_art_min","sbp_art_max","sbp_art_std","sbp_art_first","sbp_art_last","sbp_art_n","dbp_art_mean","dbp_art_min","dbp_art_max","dbp_art_std","dbp_art_first","dbp_art_last","dbp_art_n","map_art_mean","map_art_min","map_art_max","map_art_std","map_art_first","map_art_last","map_art_n","sbp_mean","sbp_min","sbp_max","sbp_std","sbp_first","sbp_last","sbp_n","dbp_mean","dbp_min","dbp_max","dbp_std","dbp_first","dbp_last","dbp_n","map_mean","map_min","map_max","map_std","map_first","map_last","map_n","hr_slope","hr_r2","spo2_slope","spo2_r2","sbp_slope","sbp_r2","map_slope","map_r2","temp_slope","temp_r2","hr_cv","spo2_cv","sbp_cv","map_cv","temp_cv","map_below_65","map_below_55","spo2_below_92","spo2_below_88","hr_above_100","hr_above_120","hr_below_50","temp_below_35","temp_above_38"],"feature_types":[],"gradient_booster":{"model":{"cats":{"enc":[],"feature_segments":[],"sorted_idx":[]},"gbtree_model_param":{"num_parallel_tree":"1","num_trees":"355"},"iteration_indptr":[0,1,2,3,4,5,6,7,8,9,10,11,12,13,14,15,16,17,18,19,20,21,22,23,24,25,26,27,28,29,30,31,32,33,34,35,36,37,38,39,40,41,42,43,44,45,46,47,48,49,50,51,52,53,54,55,56,57,58,59,60,61,62,63,64,65,66,67,68,69,70,71,72,73,74,75,76,77,78,79,80,81,82,83,84,85,86,87,88,89,90,91,92,93,94,95,96,97,98,99,100,101,102,103,104,105,106,107,108,109,110,111,112,113,114,115,116,117,118,119,120,121,122,123,124,125,126,127,128,129,130,131,132,133,134,135,136,137,138,139,140,141,142,143,144,145,146,147,148,149,150,151,152,153,154,155,156,157,158,159,160,161,162,163,164,165,166,167,168,169,170,171,172,173,174,175,176,177,178,179,180,181,182,183,184,185,186,187,188,189,190,191,192,193,194,195,196,197,198,199,200,201,202,203,204,205,206,207,208,209,210,211,212,213,214,215,216,217,218,219,220,221,222,223,224,225,226,227,228,229,230,231,232,233,234,235,236,237,238,239,240,241,242,243,244,245,246,247,248,249,250,251,252,253,254,255,256,257,258,259,260,261,262,263,264,265,266,267,268,269,270,271,272,273,274,275,276,277,278,279,280,281,282,283,284,285,286,287,288,289,290,291,292,293,294,295,296,297,298,299,300,301,302,303,304,305,306,307,308,309,310,311,312,313,314,315,316,317,318,319,320,321,322,323,324,325,326,327,328,329,330,331,332,333,334,335,336,337,338,339,340,341,342,343,344,345,346,347,348,349,350,351,352,353,354,355],"tree_info":[0,0,0,0,0,0,0,0,0,0,0,0,0,0,0,0,0,0,0,0,0,0,0,0,0,0,0,0,0,0,0,0,0,0,0,0,0,0,0,0,0,0,0,0,0,0,0,0,0,0,0,0,0,0,0,0,0,0,0,0,0,0,0,0,0,0,0,0,0,0,0,0,0,0,0,0,0,0,0,0,0,0,0,0,0,0,0,0,0,0,0,0,0,0,0,0,0,0,0,0,0,0,0,0,0,0,0,0,0,0,0,0,0,0,0,0,0,0,0,0,0,0,0,0,0,0,0,0,0,0,0,0,0,0,0,0,0,0,0,0,0,0,0,0,0,0,0,0,0,0,0,0,0,0,0,0,0,0,0,0,0,0,0,0,0,0,0,0,0,0,0,0,0,0,0,0,0,0,0,0,0,0,0,0,0,0,0,0,0,0,0,0,0,0,0,0,0,0,0,0,0,0,0,0,0,0,0,0,0,0,0,0,0,0,0,0,0,0,0,0,0,0,0,0,0,0,0,0,0,0,0,0,0,0,0,0,0,0,0,0,0,0,0,0,0,0,0,0,0,0,0,0,0,0,0,0,0,0,0,0,0,0,0,0,0,0,0,0,0,0,0,0,0,0,0,0,0,0,0,0,0,0,0,0,0,0,0,0,0,0,0,0,0,0,0,0,0,0,0,0,0,0,0,0,0,0,0,0,0,0,0,0,0,0,0,0,0,0,0,0,0,0,0,0,0,0,0,0,0,0,0,0,0,0,0,0,0,0,0,0,0,0,0,0,0,0,0,0,0,0,0,0,0,0,0],"trees":[{"base_weights":[-2.147303E-1,-9.997951E-1,2.2796493E0,-1.0930983E0,-1.6326852E-1,1.5751916E0,4.0418906E0,1.18390344E-1,-1.102675E0,7.012932E-1,-6.51992E-1,7.819263E-1,2.1521285E0,3.376326E0,4.266321E0,-1.1143543E0,1.235871E0,-9.9753845E-1,1.172941E0,1.354031E-1,-7.453498E-1,2.0431176E-1,2.253514E0,1.5954773E0,2.7308896E0,3.961001E0,2.7667334E0,3.899399E0,4.3269944E0,8.373666E-2,-1.1215491E0,-3.994114E-1,1.3142017E-1,-4.950578E-2,3.459402E-2,6.985067E-1,2.6724403E0,1.5420824E0,-8.676278E-1,-1.9526036E-1,2.0298274E0,8.3126056E-1,2.8032694E0,2.0889225E0,5.80449E-1,2.8491213E0,-3.3470693E-1,8.9931466E-2,4.157344E0,3.9180803E0,1.586851E0,4.1150293E0,1.10086925E-1,4.3474393E0,1.354031E-1,-1.1827879E0,-8.2047933E-1,-4.9500804E-2,3.459402E-2,-7.6966274E-1,1.0729356E0,3.524462E0,2.238572E-3,-4.949834E-2,1.16399E-1,3.525124E-1,-1.0637984E0,1.6448038E0,-4.22859E-1,-4.9498532E-2,2.3630292E0,3.1208422E0,-3.635944E-1,5.448892E-1,3.1339977E0,2.2972834E0,2.2128883E-1,3.3458283E0,6.715815E-2,2.9730039E0,1.0213076E0,3.459402E-2,-4.9499977E-2,4.3007474E0,1.1254718E-1,1.0201482E-1,4.244148E0,-4.950129E-2,2.8084557E0,1.7143647E-1,3.6327803E0,4.373193E0,3.824031E0,-1.1886381E0,5.1623557E-2,-1.2139531E0,-5.2045166E-1,3.459402E-2,-4.9504306E-2,5.486402E-1,2.385537E0,1.7260112E-1,2.730753E0,-5.154144E-1,2.4806821E0,8.7205864E-2,-1.1481098E0,2.6652312E0,-4.9501106E-2,5.730245E-1,-8.349388E-1,7.3483664E-1,3.0646174E0,1.7026527E-1,7.729175E-2,-4.950433E-2,6.485214E-2,-4.9500473E-2,1.20421745E-1,3.3682075E0,1.5758911E-2,1.6742965E0,3.114704E0,8.545071E-2,-4.9503412E-2,1.6935575E-1,7.285504E-2,1.354031E-1,-2.1930814E-1,2.833693E0,4.1183977E0,-3.994114E-1,1.421595E-1,1.72943E-1,4.0407763E0,1.4664255E-1,1.7497881E-1,1.5406689E-1,5.1623557E-2,9.276795E-2,1.6935575E-1,1.6947187E-1,1.5172403E-1,1.1639108E-1,1.6799177E-1,1.0955952E-1,-1.1943338E0,-4.950704E-2,-1.2222302E-1,7.499655E-1,-7.0916593E-1,1.9255202E0,-1.6862229E-1,1.01883765E-2,3.2792497E0,1.5829839E-1,2.7213737E-2,-4.9504876E-2,5.3107306E-2,3.0734535E-2,1.4942837E-1,-1.1906856E0,1.8289508E-2,3.4849908E0,1.9629855E-2,2.3487833E0,-3.4457278E-1,1.3530982E0,-1.1372358E0,1.232252E-1,-4.950193E-2,3.5394328E0,2.1024263E-2,3.5866425E0,2.5566712E-2,2.1498475E0,-2.7684593E-1,3.3747735E0,1.01883765E-2,8.901459E-2,-5.3506595E-1,3.21033E0,2.1544979E0,1.0201482E-1,1.717056E-1,-4.95007E-2,3.2618962E-2,1.20421745E-1,1.6896825E-1,1.1639108E-1,-4.9502764E-2,-1.20006E0,3.8493436E-2,1.0537012E-1,-4.9503684E-2,-4.9504288E-2,1.6236846E0,-6.526851E-2,-1.0155241E0,9.876115E-1,1.6142778E-1,5.449246E-1,-4.9504127E-2,1.5892018E-1,7.729175E-2,-3.2336449E-3,-1.2349551E0,8.9931466E-2,1.6143467E-1,1.2298448E-2,3.1516776E0,-7.5778973E-1,1.20421745E-1,-4.9501546E-2,3.1208422E0,4.2328324E-2,-4.9506865E-2,7.729175E-2,3.9469335E0,3.7637074E0,7.5033896E-2,2.3776515E0,-4.9498722E-2,-4.9504004E-2,7.075111E-2,4.8781168E-2,3.63782E0,-8.0150044E-1,1.20421745E-1,3.8024783E0,2.7416778E0,-4.9500804E-2,2.4641423E0,-4.702442E-2,-3.149482E-2,1.20421745E-1,-4.9503136E-2,1.0093855E-1,-1.5413085E-2,1.9216612E-2,-4.950592E-2,-1.9814823E-2,-4.7086127E-2,8.545071E-2,-4.9497917E-2,-4.9500804E-2,5.2362956E-2,-1.8714987E-2,-4.9506973E-2,7.075111E-2,1.5646495E-1,-4.950587E-2,8.7205864E-2,7.963298E-2,1.6575585E-1,1.6725041E-1,1.1771858E-1,1.22949265E-1,1.5945202E-1,1.02533765E-1,2.39919E-2,1.4789306E-1,7.285504E-2,2.9530192E-2,-4.950629E-2,8.901459E-2,1.5526699E-1,1.1326858E-1,1.34104295E-2,-4.949769E-2,1.04409024E-1],"categories":[],"categories_nodes":[],"categories_segments":[],"categories_sizes":[],"default_left":[0,0,0,0,0,0,0,0,1,0,0,1,1,1,0,0,0,0,1,0,1,1,1,1,1,0,0,0,1,0,1,0,0,0,0,0,0,1,0,0,0,0,1,1,0,0,0,0,0,1,1,0,0,1,0,1,0,0,0,0,1,0,0,0,0,0,0,0,0,0,0,0,0,0,0,1,0,0,0,0,1,0,0,1,0,0,0,0,0,0,0,1,0,0,0,1,1,0,0,0,0,0,0,1,0,0,1,0,0,0,1,0,1,0,0,0,0,0,0,1,0,0,0,0,0,0,0,0,0,1,1,0,0,0,0,0,0,0,0,0,0,0,0,0,0,1,1,0,0,1,1,1,0,0,0,0,0,0,0,0,0,0,0,0,0,0,0,0,0,0,0,1,0,0,0,1,0,0,0,0,1,0,1,0,0,0,0,0,0,0,0,1,0,0,0,0,0,0,0,0,0,0,0,0,0,0,0,0,0,0,0,0,0,0,0,0,0,0,1,0,0,0,0,0,0,0,0,0,0,0,1,0,1,0,0,0,0,0,0,0,0,0,0,0,0,0,0,0,0,0,0,0,0,0,0,0,0,0,0,0,0,0,0,0,0,0,0,0,0,0,0],"id":0,"left_children":[1,3,5,7,9,11,13,-1,15,17,19,21,23,25,27,29,31,33,35,-1,37,39,41,43,45,47,49,51,53,-1,55,57,-1,-1,-1,59,61,63,65,67,69,71,73,75,77,79,81,-1,83,85,87,89,-1,91,-1,93,95,-1,-1,97,99,101,-1,-1,-1,103,105,107,109,-1,111,113,115,117,119,121,123,125,127,129,131,-1,-1,133,-1,-1,135,-1,137,-1,139,141,143,145,-1,147,149,-1,-1,151,153,-1,155,157,159,-1,161,163,-1,165,167,169,171,-1,-1,-1,-1,-1,-1,173,-1,175,177,-1,-1,-1,-1,-1,179,181,183,185,-1,-1,187,-1,-1,-1,-1,-1,-1,-1,-1,-1,-1,189,191,-1,193,195,197,199,201,-1,203,-1,-1,-1,-1,-1,-1,205,-1,207,-1,209,211,213,215,-1,-1,217,-1,219,-1,221,223,225,-1,-1,227,229,231,-1,-1,-1,-1,-1,-1,-1,-1,233,235,-1,-1,-1,237,239,241,243,-1,245,-1,-1,-1,-1,247,-1,-1,-1,249,251,-1,-1,253,-1,-1,-1,255,257,-1,259,-1,-1,-1,-1,261,263,-1,265,267,-1,269,-1,-1,-1,-1,-1,-1,-1,-1,-1,-1,-1,-1,-1,-1,-1,-1,-1,-1,-1,-1,-1,-1,-1,-1,-1,-1,-1,-1,-1,-1,-1,-1,-1,-1,-1,-1,-1,-1],"loss_changes":[1.7848223E4,5.41084E2,2.7086387E3,2.4853271E2,2.9392935E2,7.133889E2,9.305957E1,0E0,1.6995459E2,2.012922E2,1.726304E2,5.578905E2,2.90729E2,5.599231E1,1.0355469E1,1.4630957E2,1.097196E2,2.9504246E1,1.3988226E2,0E0,1.2157742E2,3.4380487E2,1.4464764E2,2.3039575E2,1.6036133E2,2.566504E1,1.0449963E2,1.4910278E1,6.6708984E0,0E0,1.1390381E2,2.018594E1,0E0,0E0,0E0,8.2114655E1,1.0527014E2,9.185716E1,9.876126E1,1.6194556E2,9.3424286E1,1.4110168E2,9.965393E1,1.2044861E2,2.135901E2,9.645508E1,1.9177898E1,0E0,1.2722534E1,1.6166992E1,1.3320276E2,8.642639E0,0E0,5.239746E0,0E0,7.5703125E1,1.232746E2,0E0,0E0,2.5954134E1,8.190495E1,2.6812897E1,0E0,0E0,0E0,1.05563545E2,9.9608154E1,1.2716162E2,1.4122574E2,0E0,8.784592E1,2.5521606E1,6.368496E1,8.024219E1,7.429114E1,1.4179749E2,9.313708E1,3.580359E1,1.251355E2,6.364624E1,1.02295746E2,0E0,0E0,2.9970703E0,0E0,0E0,3.9764404E0,0E0,4.6400375E1,0E0,2.0590332E1,3.0117188E0,7.8101807E0,3.7873535E1,0E0,3.401117E1,1.4204483E2,0E0,0E0,8.399568E1,6.440546E1,0E0,5.389734E1,5.8933052E1,3.8796516E1,0E0,2.3942017E1,5.5795837E1,0E0,1.6411697E2,1.6100223E2,1.14883125E2,6.4298584E1,0E0,0E0,0E0,0E0,0E0,0E0,6.3335815E1,0E0,1.4663074E2,8.9284546E1,0E0,0E0,0E0,0E0,0E0,9.345342E1,9.098193E1,2.1112915E1,1.938866E1,0E0,0E0,8.170685E0,0E0,0E0,0E0,0E0,0E0,0E0,0E0,0E0,0E0,0E0,9.0550705E1,3.6001465E1,0E0,8.8876495E1,1.3609949E2,1.01757904E2,6.1677383E1,4.4459972E1,0E0,2.5582764E1,0E0,0E0,0E0,0E0,0E0,0E0,1.6551544E1,0E0,1.8428009E1,0E0,5.5926743E1,9.508317E1,1.3768112E2,6.960452E1,0E0,0E0,2.8305237E1,0E0,2.8825928E1,0E0,9.93573E1,6.574466E1,6.12688E1,0E0,0E0,1.0144081E2,6.3484863E1,1.3505353E2,0E0,0E0,0E0,0E0,0E0,0E0,0E0,0E0,3.6089355E1,9.601889E1,0E0,0E0,0E0,1.0756093E2,1.1405928E2,3.5912598E1,5.7325073E1,0E0,5.059204E1,0E0,0E0,0E0,0E0,1.1680725E1,0E0,0E0,0E0,2.9257431E1,9.4013794E1,0E0,0E0,2.1950836E1,0E0,0E0,0E0,1.2388977E1,1.902771E1,0E0,5.8450623E1,0E0,0E0,0E0,0E0,3.3416138E1,7.321746E1,0E0,3.341504E1,5.918152E1,0E0,1.0532703E2,0E0,0E0,0E0,0E0,0E0,0E0,0E0,0E0,0E0,0E0,0E0,0E0,0E0,0E0,0E0,0E0,0E0,0E0,0E0,0E0,0E0,0E0,0E0,0E0,0E0,0E0,0E0,0E0,0E0,0E0,0E0,0E0,0E0,0E0,0E0,0E0,0E0,0E0],"parents":[2147483647,0,0,1,1,2,2,3,3,4,4,5,5,6,6,8,8,9,9,10,10,11,11,12,12,13,13,14,14,15,15,16,16,17,17,18,18,20,20,21,21,22,22,23,23,24,24,25,25,26,26,27,27,28,28,30,30,31,31,35,35,36,36,37,37,38,38,39,39,40,40,41,41,42,42,43,43,44,44,45,45,46,46,48,48,49,49,50,50,51,51,53,53,55,55,56,56,59,59,60,60,61,61,65,65,66,66,67,67,68,68,70,70,71,71,72,72,73,73,74,74,75,75,76,76,77,77,78,78,79,79,80,80,83,83,86,86,88,88,90,90,91,91,92,92,93,93,95,95,96,96,99,99,100,100,102,102,103,103,104,104,106,106,107,107,109,109,110,110,111,111,112,112,119,119,121,121,122,122,128,128,129,129,130,130,131,131,134,134,145,145,146,146,148,148,149,149,150,150,151,151,152,152,154,154,161,161,163,163,165,165,166,166,167,167,168,168,171,171,173,173,175,175,176,176,177,177,180,180,181,181,182,182,191,191,192,192,196,196,197,197,198,198,199,199,201,201,206,206,210,210,211,211,214,214,218,218,219,219,221,221,226,226,227,227,229,229,230,230,232,232],"right_children":[2,4,6,8,10,12,14,-1,16,18,20,22,24,26,28,30,32,34,36,-1,38,40,42,44,46,48,50,52,54,-1,56,58,-1,-1,-1,60,62,64,66,68,70,72,74,76,78,80,82,-1,84,86,88,90,-1,92,-1,94,96,-1,-1,98,100,102,-1,-1,-1,104,106,108,110,-1,112,114,116,118,120,122,124,126,128,130,132,-1,-1,134,-1,-1,136,-1,138,-1,140,142,144,146,-1,148,150,-1,-1,152,154,-1,156,158,160,-1,162,164,-1,166,168,170,172,-1,-1,-1,-1,-1,-1,174,-1,176,178,-1,-1,-1,-1,-1,180,182,184,186,-1,-1,188,-1,-1,-1,-1,-1,-1,-1,-1,-1,-1,190,192,-1,194,196,198,200,202,-1,204,-1,-1,-1,-1,-1,-1,206,-1,208,-1,210,212,214,216,-1,-1,218,-1,220,-1,222,224,226,-1,-1,228,230,232,-1,-1,-1,-1,-1,-1,-1,-1,234,236,-1,-1,-1,238,240,242,244,-1,246,-1,-1,-1,-1,248,-1,-1,-1,250,252,-1,-1,254,-1,-1,-1,256,258,-1,260,-1,-1,-1,-1,262,264,-1,266,268,-1,270,-1,-1,-1,-1,-1,-1,-1,-1,-1,-1,-1,-1,-1,-1,-1,-1,-1,-1,-1,-1,-1,-1,-1,-1,-1,-1,-1,-1,-1,-1,-1,-1,-1,-1,-1,-1,-1,-1],"split_conditions":[4E0,1E0,5E0,9.122E1,5.8E1,8.7E1,7.6E1,1.18390344E-1,7.3E1,1.2782775E-1,3.45E1,1.432E1,2.6932241E1,3.472222E1,8.762E1,3.7E1,3.9070427E-2,1.44E2,8.2E1,1.354031E-1,2.7687039E-4,6E0,5.5E1,1.559E1,1.26E2,4.7E1,9.79E1,7.8E1,7.5156236E-1,8.373666E-2,7.4E1,8.7543236E1,1.3142017E-1,-4.950578E-2,3.459402E-2,4.1E1,9.915E1,9.46E0,9.76E1,7.042E1,5.671E1,9.8E1,2.2103645E1,9.8E1,7.6E1,3E0,8.927E1,8.9931466E-2,3.545E1,4.6E1,3.9E1,1.5E2,1.10086925E-1,3.962008E1,1.354031E-1,1.18E2,3E0,-4.9500804E-2,3.459402E-2,2.1314634E1,6.315E1,1.9247986E-1,2.238572E-3,-4.949834E-2,1.16399E-1,1.1106735E-1,6.5E1,1.4214511E-1,1.06396385E-1,-4.9498532E-2,5.3E1,6E0,1.902E1,5.4E1,5.6E1,9.447E1,6.8E1,6.2E1,3.522222E1,5.1756382E1,8.3E0,3.459402E-2,-4.9499977E-2,1.398E1,1.1254718E-1,1.0201482E-1,7.51E0,-4.950129E-2,4E0,1.7143647E-1,6.6E1,1.3E1,5.1756382E1,4.3E1,5.1623557E-2,1.8E1,8.052433E-3,3.459402E-2,-4.9504306E-2,6.304927E1,2.7931381E1,1.7260112E-1,7.867987E-2,2.4E1,1.04E2,8.7205864E-2,1.57E2,3.633889E1,-4.9501106E-2,1.012E1,4.264E1,4.9E1,5.2E1,1.7026527E-1,7.729175E-2,-4.950433E-2,6.485214E-2,-4.9500473E-2,1.20421745E-1,1.4091E2,1.5758911E-2,2.5827383E1,1.2E2,8.545071E-2,-4.9503412E-2,1.6935575E-1,7.285504E-2,1.354031E-1,7.352582E-3,1.0478E2,9.7E1,9.929892E1,1.421595E-1,1.72943E-1,9.16E0,1.4664255E-1,1.7497881E-1,1.5406689E-1,5.1623557E-2,9.276795E-2,1.6935575E-1,1.6947187E-1,1.5172403E-1,1.1639108E-1,1.6799177E-1,2.4924034E-2,2.9E1,-4.950704E-2,8.2E1,1.5133907E-1,2.916E1,2.5274248E1,2.9534502E1,1.01883765E-2,1.02E2,1.5829839E-1,2.7213737E-2,-4.9504876E-2,5.3107306E-2,3.0734535E-2,1.4942837E-1,5.1E1,1.8289508E-2,3E0,1.9629855E-2,6E1,4.171E1,7.925718E-1,5.158E1,1.232252E-1,-4.950193E-2,2.3627602E1,2.1024263E-2,1.9E1,2.5566712E-2,-4.8734176E-1,1E0,5.8966946E1,1.01883765E-2,8.901459E-2,2.684E1,6.33E1,2.5E1,1.0201482E-1,1.717056E-1,-4.95007E-2,3.2618962E-2,1.20421745E-1,1.6896825E-1,1.1639108E-1,-4.9502764E-2,1.28E2,3.9E1,1.0537012E-1,-4.9503684E-2,-4.9504288E-2,7.814906E1,1.01E2,2.510462E1,1E0,1.6142778E-1,7.379912E1,-4.9504127E-2,1.5892018E-1,7.729175E-2,-3.2336449E-3,9.3E1,8.9931466E-2,1.6143467E-1,1.2298448E-2,1.8668237E-1,5.9E1,1.20421745E-1,-4.9501546E-2,1E0,4.2328324E-2,-4.9506865E-2,7.729175E-2,5.9E1,3.7055557E1,7.5033896E-2,3E0,-4.9498722E-2,-4.9504004E-2,7.075111E-2,4.8781168E-2,1E0,5.536E1,1.20421745E-1,3.5E1,3.627778E1,-4.9500804E-2,6.9E1,-4.702442E-2,-3.149482E-2,1.20421745E-1,-4.9503136E-2,1.0093855E-1,-1.5413085E-2,1.9216612E-2,-4.950592E-2,-1.9814823E-2,-4.7086127E-2,8.545071E-2,-4.9497917E-2,-4.9500804E-2,5.2362956E-2,-1.8714987E-2,-4.9506973E-2,7.075111E-2,1.5646495E-1,-4.950587E-2,8.7205864E-2,7.963298E-2,1.6575585E-1,1.6725041E-1,1.1771858E-1,1.22949265E-1,1.5945202E-1,1.02533765E-1,2.39919E-2,1.4789306E-1,7.285504E-2,2.9530192E-2,-4.950629E-2,8.901459E-2,1.5526699E-1,1.1326858E-1,1.34104295E-2,-4.949769E-2,1.04409024E-1],"split_indices":[5,10,5,18,80,15,65,0,55,117,34,25,4,32,60,19,127,13,65,0,121,26,65,63,111,103,18,106,117,0,12,3,0,0,0,82,18,112,95,88,81,90,4,19,19,7,11,0,53,94,82,76,0,4,0,110,5,0,0,4,102,117,0,0,0,120,13,128,121,0,17,29,25,38,55,11,104,110,34,4,14,0,0,25,0,0,14,0,108,0,107,26,4,16,0,54,121,0,0,3,4,0,126,27,100,0,111,32,0,25,60,82,94,0,0,0,0,0,0,95,0,4,16,0,0,0,0,0,121,95,22,3,0,0,14,0,0,0,0,0,0,0,0,0,0,121,108,0,15,117,53,4,4,0,96,0,0,0,0,0,0,106,0,26,0,12,53,121,81,0,0,4,0,30,0,120,10,3,0,0,14,81,61,0,0,0,0,0,0,0,0,79,65,0,0,0,3,113,4,1,0,3,0,0,0,0,22,0,0,0,129,17,0,0,10,0,0,0,106,34,0,7,0,0,0,0,1,60,0,80,37,0,12,0,0,0,0,0,0,0,0,0,0,0,0,0,0,0,0,0,0,0,0,0,0,0,0,0,0,0,0,0,0,0,0,0,0,0,0,0,0],"split_type":[0,0,0,0,0,0,0,0,0,0,0,0,0,0,0,0,0,0,0,0,0,0,0,0,0,0,0,0,0,0,0,0,0,0,0,0,0,0,0,0,0,0,0,0,0,0,0,0,0,0,0,0,0,0,0,0,0,0,0,0,0,0,0,0,0,0,0,0,0,0,0,0,0,0,0,0,0,0,0,0,0,0,0,0,0,0,0,0,0,0,0,0,0,0,0,0,0,0,0,0,0,0,0,0,0,0,0,0,0,0,0,0,0,0,0,0,0,0,0,0,0,0,0,0,0,0,0,0,0,0,0,0,0,0,0,0,0,0,0,0,0,0,0,0,0,0,0,0,0,0,0,0,0,0,0,0,0,0,0,0,0,0,0,0,0,0,0,0,0,0,0,0,0,0,0,0,0,0,0,0,0,0,0,0,0,0,0,0,0,0,0,0,0,0,0,0,0,0,0,0,0,0,0,0,0,0,0,0,0,0,0,0,0,0,0,0,0,0,0,0,0,0,0,0,0,0,0,0,0,0,0,0,0,0,0,0,0,0,0,0,0,0,0,0,0,0,0,0,0,0,0,0,0,0,0,0,0,0,0,0,0,0,0,0,0,0,0,0,0,0,0],"sum_hessian":[9.114375E3,6.9324893E3,2.1818857E3,6.236852E3,6.956373E2,1.5587684E3,6.231174E2,1.4320513E1,6.2225312E3,2.5122075E2,4.4441656E2,6.563358E2,9.024326E2,1.5713582E2,4.6598154E2,6.19161E3,3.09217E1,5.4590015E1,1.9663074E2,9.751987E0,4.3466458E2,4.7133356E2,1.8500226E2,4.6000494E2,4.424277E2,8.02045E1,7.693131E1,6.6128525E1,3.9985303E2,1.3533681E1,6.178076E3,1.7632557E1,1.3289142E1,4.7443066E1,7.1469526E0,1.4937183E2,4.725892E1,2.2055796E1,4.1260876E2,3.8669357E2,8.463999E1,5.1575726E1,1.3342653E2,3.095291E2,1.5047583E2,4.259984E2,1.642929E1,8.621366E0,7.158314E1,3.8935307E1,3.799601E1,5.4829483E1,1.1299044E1,3.90101E2,9.751987E0,5.13383E3,1.0442457E3,1.0485605E1,7.1469526E0,3.03528E1,1.1901902E2,3.564269E1,1.1616227E1,7.563387E0,1.4492408E1,5.7149014E1,3.5545978E2,4.2564533E1,3.4412903E2,7.7352824E0,7.690471E1,1.7685772E1,3.3889954E1,1.7044228E1,1.163823E2,2.7846213E2,3.1066988E1,2.3556814E1,1.2691902E2,3.9895764E2,2.7040754E1,7.1469526E0,9.282339E0,6.416503E1,7.418099E0,7.9337845E0,3.100152E1,1.134508E1,2.6650927E1,3.2647827E1,2.2181654E1,3.7180032E2,1.8300709E1,5.121943E3,1.1887373E1,4.517671E2,5.924787E2,7.1469526E0,2.3205847E1,8.504925E1,3.3969776E1,1.6237967E1,1.9404724E1,4.0593864E1,1.655515E1,8.793261E0,3.466665E2,3.1563244E1,1.100129E1,1.00718315E2,2.4341072E2,2.315981E1,5.3744896E1,8.204931E0,9.480841E0,2.3377743E1,1.0512212E1,9.969919E0,7.074309E0,1.0717261E2,9.209695E0,1.5802698E2,1.2043514E2,1.3361786E1,1.7705202E1,1.3732183E1,9.824632E0,9.751987E0,1.1716703E2,3.5569836E2,4.3259293E1,1.7632557E1,9.408197E0,3.783129E1,2.6333744E1,1.2257771E1,1.874375E1,1.4763555E1,1.1887373E1,8.4494705E0,1.3732183E1,3.5686487E2,1.493545E1,7.246204E0,1.1054504E1,2.2372978E1,5.09957E3,4.2492484E2,2.6842253E1,7.662638E1,5.158523E2,2.9130104E1,5.591914E1,1.0069171E1,2.3900604E1,1.157019E1,7.834533E0,2.8878387E1,1.1715478E1,7.490743E0,9.064406E0,3.378006E2,8.865905E0,2.2869234E1,8.694009E0,3.4313564E1,6.640475E1,2.9546537E1,2.1386418E2,1.0439568E1,1.2720242E1,4.5222782E1,8.522114E0,9.916618E1,8.006429E0,1.27059235E2,3.0967735E1,1.10365974E2,1.0069171E1,1.3017996E1,1.0414904E2,2.2881102E2,1.2688734E2,7.9337845E0,3.532551E1,1.0313709E1,7.318848E0,7.074309E0,1.9259436E1,7.246204E0,1.5126774E1,5.0759937E3,2.3576244E1,7.7618895E0,1.9080362E1,2.303395E1,5.359243E1,1.6630962E2,3.495427E2,2.0581383E1,8.548721E0,3.4088455E1,2.1830685E1,1.4419764E1,9.480841E0,1.2991388E1,3.248092E2,8.621366E0,1.4247869E1,9.72538E0,2.4588186E1,5.9330437E1,7.074309E0,1.1860766E1,1.7685772E1,1.3090639E1,2.0077354E2,9.480841E0,3.574194E1,8.951344E1,9.652737E0,1.19152054E2,7.9071774E0,2.097121E1,9.996527E0,1.2231164E1,9.813481E1,9.707473E1,7.074309E0,1.0108363E2,1.2772739E2,1.0485605E1,1.1640173E2,4.842381E3,2.336127E2,7.074309E0,1.6501936E1,3.5959873E1,1.7632557E1,1.137097E2,5.259992E1,1.0122682E2,2.4831586E2,1.3361786E1,7.219597E0,1.0485605E1,2.3602852E1,1.9523405E1,3.052858E2,9.996527E0,1.4591659E1,5.0537178E1,8.793261E0,9.308946E0,8.376826E0,2.4958584E1,1.0783359E1,3.4855858E1,5.4657585E1,1.0279541E2,1.6356647E1,8.831018E1,9.824632E0,2.281602E1,7.425871E1,1.3017996E1,8.806564E1,1.181739E2,9.553485E0,7.047702E0,1.09354034E2],"tree_param":{"num_deleted":"0","num_feature":"140","num_nodes":"271","size_leaf_vector":"1"}},{"base_weights":[-2.0506734E-1,-9.788377E-1,2.0999997E0,-1.0772172E0,-1.1322669E-1,1.4732208E0,3.5602672E0,-1.0845937E0,1.6033433E-1,8.925471E-1,-4.6165037E-1,2.0274644E0,7.257584E-1,3.1768084E0,3.7749248E0,-1.096372E0,1.1645795E0,2.2586634E0,3.8716882E-1,8.145002E-1,-6.511968E-1,3.036118E-1,2.1885238E0,3.424879E-1,1.8493751E0,2.7851095E-2,3.2558126E0,3.79307E0,1.1753755E-1,7.626977E-1,-1.110528E0,-4.904681E-2,2.5312946E0,3.645667E0,1.0893815E0,9.3686545E-1,-4.9244527E-2,-4.9239304E-2,1.5857126E0,2.1346323E0,-7.6913023E-1,-4.925623E-2,1.9517155E0,3.4045975E0,1.9873209E0,-1.134362E-2,2.2734027E0,2.314918E0,4.8040593E-1,3.4492657E0,2.5656276E0,3.588788E0,3.861571E0,-3.0420804E-1,1.253744E-1,-1.1346976E0,-3.6123964E-1,1.5125717E-1,2.1757087E-2,1.6769698E-1,1.13583006E-1,-4.9345E-2,1.227096E-1,1.4491983E-1,6.43096E-1,-2.4990323E-1,2.4035597E0,1.6548453E-1,-4.9517553E-2,1.0484471E0,-8.8895977E-1,2.6835947E0,-4.960954E-2,3.6029851E0,2.513157E-2,1.6396848E0,2.6927257E0,-4.5094997E-1,8.3740854E-1,2.9574869E0,2.7298525E-1,1.6405066E0,3.084004E0,-4.9675338E-2,2.2247045E0,3.5791583E0,2.6902273E0,-5.026635E-2,3.212512E0,3.7999094E0,2.914898E0,1.533568E-1,3.7766924E0,-4.914334E-2,1.08322084E-1,8.9876816E-2,-1.139831E0,-9.405152E-1,1.4027804E0,-4.932465E-2,1.1451932E0,-4.9321633E-2,3.5639085E-2,3.8016256E-2,3.386073E0,2.563962E0,-4.923922E-2,-9.598927E-1,1.0702566E-1,3.4033468E0,2.4025677E-2,6.839536E-2,3.7870288E0,2.329681E-1,1.9273158E0,1.3456284E0,2.927465E0,2.4510121E0,-6.819822E-1,-5.5331445E-1,1.9078206E0,1.3906772E-2,3.46094E0,-4.9467523E-2,1.1813588E-1,-4.954371E-2,2.2081413E0,1.9520536E-2,3.5118208E0,1.3834442E-1,1.4410928E-2,9.256637E-2,3.6447468E0,3.4303243E0,2.9198715E-2,3.0933946E-2,3.688102E0,1.4989766E-1,1.1329231E-1,1.477168E-1,2.8144512E-2,3.3883302E0,1.4755878E-1,-1.1642548E0,-6.262329E-1,-1.1500973E0,4.8624404E-2,3.1976411E0,3.3406997E-1,-4.968198E-2,1.6171334E0,1.5202366E-1,9.9079795E-2,3.194956E-2,1.5479197E-1,-1.0325158E0,7.6911606E-2,8.787054E-2,1.5762308E-1,3.1104581E0,3.9665716E0,1.309451E-1,-2.038469E-1,4.0179077E-1,2.217938E0,-4.9937855E-2,2.364537E0,2.5352852E0,3.570402E0,2.4749923E-2,1.3886952E-1,-7.872294E-1,1.16971135E-1,1.1839133E-1,-1.0095912E0,3.0040677E0,4.5867622E-1,3.8738432E0,7.076861E-2,3.1644723E0,1.0690101E0,3.7581751E0,8.8162996E-2,3.4155571E0,3.9203615E0,9.934937E-2,1.5496056E-1,1.5912612E-1,1.1559419E-1,1.5422405E-1,9.687982E-2,-1.203206E-1,-1.1770241E0,-1.7342273E-2,-1.1633849E0,3.524027E-2,-4.9035843E-2,8.641846E-2,1.6159664E-1,-4.905769E-2,8.282885E-2,3.0179079E0,9.9842817E-1,3.2824013E-1,-1.1425185E0,1.01415694E-1,1.4380908E-1,4.0576572E0,1.17470995E-1,-5.5379456E-1,9.940455E-2,1.3061038E-1,-3.7849522E-1,-6.990338E-2,2.4052932E0,3.6106596E0,1.2336727E-2,1.0200989E0,2.9465666E0,3.7613242E0,8.251068E-2,1.0587357E-1,-8.978181E-1,-4.953138E-2,3.5524797E-2,2.9630993E-2,3.4308922E0,9.087302E-2,-6.0141873E-1,4.1038766E0,1.1158676E-1,1.4642821E-1,6.9925465E-2,2.6073136E0,-4.9977154E-2,4.0276213E0,1.1440751E-1,8.053051E-2,3.582089E0,1.5454015E-1,1.3192685E-1,-2.7524233E-2,1.02336615E-1,-4.6295725E-2,-2.3462735E-2,-2.7424771E-2,5.358821E-2,3.6563125E-2,-4.91801E-2,8.685169E-2,1.442759E-1,6.587251E-2,-9.019138E-3,-2.1417184E-2,1.0964533E-1,1.5522323E-3,-4.732861E-2,1.5972205E-1,1.3610668E-1,-4.9429916E-2,2.7915163E-2,9.623567E-2,-3.599721E-2,8.9419566E-2,-4.957073E-2,1.6042873E-1,8.744505E-2,1.18054055E-1,1.5679929E-1,8.57265E-2,-5.0045535E-2,1.2604955E-1,5.480074E-2,1.5104036E-1,1.0076675E-1,-4.326338E-3,-4.5871206E-2,1.4698252E-1,8.303704E-2,-4.9526107E-2,3.6051005E-2,1.4076924E-1,1.6579205E-1,1.5568036E-1,3.361285E-2,1.3017249E-1,1.6674294E-1,1.1202314E-1,1.4485255E-1],"categories":[],"categories_nodes":[],"categories_segments":[],"categories_sizes":[],"default_left":[0,0,0,1,1,1,0,1,0,0,0,0,1,0,1,0,0,0,1,0,0,0,0,1,1,0,1,0,0,0,0,0,1,0,0,0,0,0,1,0,0,0,1,1,1,1,0,0,0,1,0,1,0,0,0,0,0,0,0,0,0,0,0,0,0,0,0,0,0,1,1,1,0,0,0,1,1,0,0,0,1,0,1,0,0,0,0,0,0,1,0,0,0,0,0,0,1,1,0,0,0,0,0,0,1,1,0,0,0,0,0,0,1,0,0,0,0,0,1,0,0,0,0,0,0,0,0,0,0,0,0,0,1,0,0,0,0,0,0,0,0,0,0,0,0,0,0,1,1,0,0,0,0,0,0,0,0,0,0,0,1,0,1,0,0,0,0,0,0,0,0,0,0,0,0,0,0,0,0,0,0,0,0,1,0,0,0,0,0,0,0,1,1,0,0,0,0,0,0,0,0,0,0,0,0,0,0,1,0,0,0,0,0,0,0,0,0,1,1,0,0,0,0,0,0,0,0,0,0,0,0,0,0,0,0,1,0,0,0,0,0,0,0,0,0,0,0,0,0,0,0,0,0,0,0,0,0,0,0,0,0,0,0,0,0,0,0,0,0,0,0,0,0,0,0,0,0,0,0,0,0,0,0,0,0,0,0,0,0],"id":1,"left_children":[1,3,5,7,9,11,13,15,-1,17,19,21,23,25,27,29,31,33,35,37,39,41,43,45,47,-1,49,51,-1,53,55,-1,57,59,61,63,-1,-1,65,67,69,-1,71,73,75,77,79,81,83,85,87,89,91,93,-1,95,97,-1,-1,-1,-1,-1,-1,-1,99,101,103,-1,-1,105,107,109,-1,111,-1,113,115,117,119,121,123,125,127,-1,129,131,133,-1,135,137,139,-1,141,-1,-1,-1,143,145,147,-1,149,-1,-1,-1,151,153,-1,155,-1,157,-1,-1,159,161,163,165,167,169,171,173,175,-1,177,-1,-1,-1,179,-1,181,-1,-1,-1,183,185,-1,-1,187,-1,-1,-1,-1,189,-1,191,193,195,-1,197,199,-1,201,-1,-1,-1,-1,203,-1,-1,-1,205,207,-1,209,211,213,-1,215,217,219,-1,-1,221,-1,-1,223,225,227,229,-1,231,233,235,-1,237,239,-1,-1,-1,-1,-1,-1,241,243,245,247,-1,-1,-1,-1,-1,-1,249,251,253,255,-1,-1,257,-1,259,-1,-1,261,263,265,267,-1,269,271,273,-1,-1,275,-1,-1,-1,277,-1,279,281,-1,-1,-1,283,-1,285,-1,-1,287,-1,-1,-1,-1,-1,-1,-1,-1,-1,-1,-1,-1,-1,-1,-1,-1,-1,-1,-1,-1,-1,-1,-1,-1,-1,-1,-1,-1,-1,-1,-1,-1,-1,-1,-1,-1,-1,-1,-1,-1,-1,-1,-1,-1,-1,-1,-1,-1,-1,-1],"loss_changes":[1.6184516E4,5.7853174E2,2.087249E3,2.354336E2,2.4296385E2,6.6102563E2,5.6359375E1,1.6138135E2,0E0,1.2315527E2,1.2455793E2,2.5438257E2,2.925763E2,4.76709E1,5.794922E0,1.5947949E2,1.05639626E2,7.811615E1,1.1905642E2,1.0736163E2,1.4730017E2,2.0387398E2,2.0501685E2,3.4611435E2,1.1012433E2,0E0,3.178418E1,5.979492E0,0E0,1.2147787E2,1.0891553E2,0E0,5.552272E1,1.081662E1,1.2940001E2,8.103243E1,0E0,0E0,7.3032814E1,1.3404176E2,9.368388E1,0E0,9.07957E1,6.497229E1,1.7630664E2,1.5974522E2,1.0735828E2,6.6875E1,1.3521608E2,1.8326416E1,1.3046985E2,1.5294434E1,3.0458984E0,9.663717E1,0E0,1.0359668E2,1.9204535E2,0E0,0E0,0E0,0E0,0E0,0E0,0E0,8.550383E1,1.8092196E1,4.689334E1,0E0,0E0,9.372128E1,1.0483209E2,4.6358658E1,0E0,3.7374756E1,0E0,1.9487427E2,7.504907E1,1.8910056E2,2.1747263E2,7.643613E1,8.6687065E1,1.1405043E2,6.644287E1,0E0,5.5581917E1,1.2284546E1,3.8893585E1,0E0,5.1211426E1,5.968506E0,5.121881E1,0E0,3.3308105E0,0E0,0E0,0E0,7.297461E1,6.525078E1,8.9113655E1,0E0,8.067706E1,0E0,0E0,0E0,8.993652E0,4.0456917E1,0E0,8.48956E1,0E0,1.7762238E1,0E0,0E0,1.2232666E1,1.1287484E2,1.7728113E2,9.4743546E1,5.09552E1,4.3189857E1,1.020974E2,1.0498304E2,1.3113678E2,0E0,3.2888306E1,0E0,0E0,0E0,6.267401E1,0E0,1.560968E1,0E0,0E0,0E0,9.488281E0,9.833557E0,0E0,0E0,1.1237793E1,0E0,0E0,0E0,0E0,1.0554245E1,0E0,7.4029785E1,8.6376656E1,3.214676E1,0E0,1.6434967E1,8.4728714E1,0E0,5.1001175E1,0E0,0E0,0E0,0E0,5.7834747E1,0E0,0E0,0E0,6.2740936E0,6.6798096E0,0E0,6.987891E1,1.489353E2,1.4397449E2,0E0,6.475687E1,7.82345E1,2.0929932E1,0E0,0E0,9.920001E1,0E0,0E0,2.983908E1,4.485196E1,7.14704E1,8.81012E0,0E0,2.664148E1,9.550455E1,9.184937E0,0E0,1.8168213E1,2.8746338E0,0E0,0E0,0E0,0E0,0E0,0E0,1.103146E2,7.078027E1,1.20670685E2,3.2894836E1,0E0,0E0,0E0,0E0,0E0,0E0,9.960785E0,3.5644115E1,6.414556E1,3.549234E1,0E0,0E0,3.1132812E0,0E0,5.925327E1,0E0,0E0,8.075969E1,7.37199E1,7.573633E1,3.9264832E0,0E0,7.461893E1,4.8205933E1,1.1854248E1,0E0,0E0,5.629837E1,0E0,0E0,0E0,1.9068909E1,0E0,2.3884357E1,2.75885E0,0E0,0E0,0E0,3.9409653E1,0E0,6.1480103E0,0E0,0E0,8.4939575E0,0E0,0E0,0E0,0E0,0E0,0E0,0E0,0E0,0E0,0E0,0E0,0E0,0E0,0E0,0E0,0E0,0E0,0E0,0E0,0E0,0E0,0E0,0E0,0E0,0E0,0E0,0E0,0E0,0E0,0E0,0E0,0E0,0E0,0E0,0E0,0E0,0E0,0E0,0E0,0E0,0E0,0E0,0E0,0E0,0E0,0E0,0E0,0E0,0E0,0E0],"parents":[2147483647,0,0,1,1,2,2,3,3,4,4,5,5,6,6,7,7,9,9,10,10,11,11,12,12,13,13,14,14,15,15,16,16,17,17,18,18,19,19,20,20,21,21,22,22,23,23,24,24,26,26,27,27,29,29,30,30,32,32,33,33,34,34,35,35,38,38,39,39,40,40,42,42,43,43,44,44,45,45,46,46,47,47,48,48,49,49,50,50,51,51,52,52,53,53,55,55,56,56,64,64,65,65,66,66,69,69,70,70,71,71,73,73,75,75,76,76,77,77,78,78,79,79,80,80,81,81,82,82,84,84,85,85,86,86,88,88,89,89,90,90,92,92,96,96,97,97,98,98,100,100,104,104,105,105,107,107,109,109,112,112,113,113,114,114,115,115,116,116,117,117,118,118,119,119,120,120,122,122,126,126,128,128,132,132,133,133,136,136,141,141,143,143,144,144,145,145,147,147,148,148,150,150,155,155,159,159,160,160,162,162,163,163,164,164,166,166,167,167,168,168,171,171,174,174,175,175,176,176,177,177,179,179,180,180,181,181,183,183,184,184,191,191,192,192,193,193,194,194,201,201,202,202,203,203,204,204,207,207,209,209,212,212,213,213,214,214,215,215,217,217,218,218,219,219,222,222,226,226,228,228,229,229,233,233,235,235,238,238],"right_children":[2,4,6,8,10,12,14,16,-1,18,20,22,24,26,28,30,32,34,36,38,40,42,44,46,48,-1,50,52,-1,54,56,-1,58,60,62,64,-1,-1,66,68,70,-1,72,74,76,78,80,82,84,86,88,90,92,94,-1,96,98,-1,-1,-1,-1,-1,-1,-1,100,102,104,-1,-1,106,108,110,-1,112,-1,114,116,118,120,122,124,126,128,-1,130,132,134,-1,136,138,140,-1,142,-1,-1,-1,144,146,148,-1,150,-1,-1,-1,152,154,-1,156,-1,158,-1,-1,160,162,164,166,168,170,172,174,176,-1,178,-1,-1,-1,180,-1,182,-1,-1,-1,184,186,-1,-1,188,-1,-1,-1,-1,190,-1,192,194,196,-1,198,200,-1,202,-1,-1,-1,-1,204,-1,-1,-1,206,208,-1,210,212,214,-1,216,218,220,-1,-1,222,-1,-1,224,226,228,230,-1,232,234,236,-1,238,240,-1,-1,-1,-1,-1,-1,242,244,246,248,-1,-1,-1,-1,-1,-1,250,252,254,256,-1,-1,258,-1,260,-1,-1,262,264,266,268,-1,270,272,274,-1,-1,276,-1,-1,-1,278,-1,280,282,-1,-1,-1,284,-1,286,-1,-1,288,-1,-1,-1,-1,-1,-1,-1,-1,-1,-1,-1,-1,-1,-1,-1,-1,-1,-1,-1,-1,-1,-1,-1,-1,-1,-1,-1,-1,-1,-1,-1,-1,-1,-1,-1,-1,-1,-1,-1,-1,-1,-1,-1,-1,-1,-1,-1,-1,-1,-1],"split_conditions":[4E0,1E0,5E0,1.27E2,8.6E1,8.58E0,8.762E1,5.8E1,1.6033433E-1,1.589E1,1.1E2,6.7E1,1.446E1,2.6E1,1.509E1,5.5E1,8.7E1,2.353514E1,5.9E1,7.8E1,5.665E1,9.5E1,1.5494E2,3.5746346E1,1.57E2,2.7851095E-2,1.44E2,8.49E0,1.1753755E-1,1.08E2,8.5E1,-4.904681E-2,8E1,6.33E0,5.7E1,1.7224558E1,-4.9244527E-2,-4.9239304E-2,2.3145285E-1,1.5494E2,3E0,-4.925623E-2,1.261553E-1,1.68E2,8.5E1,9E1,8.7E1,3.4E1,7.1E1,7.5E-1,1.31E2,1.414E1,3.4E1,1.11E2,1.253744E-1,3.4E1,7.8E1,1.5125717E-1,2.1757087E-2,1.6769698E-1,1.13583006E-1,-4.9345E-2,1.227096E-1,1.4491983E-1,4.6E1,1.111E1,8.514912E1,1.6548453E-1,-4.9517553E-2,1.137E1,7.443417E-1,-2.2048363E-3,-4.960954E-2,2.2103645E1,2.513157E-2,2.0660913E1,1.6108138E-2,3.7E1,6.5432295E-2,8E1,1.611E1,2.4559134E1,4E0,-4.9675338E-2,1.5E1,3.7E1,7.6E1,-5.026635E-2,8.519455E-1,5.5914214E-3,3.5555557E1,1.533568E-1,3.9E1,-4.914334E-2,1.08322084E-1,8.9876816E-2,1.28E2,1.21E2,1.3075258E-1,-4.932465E-2,2.31341E1,-4.9321633E-2,3.5639085E-2,3.8016256E-2,5.1E1,-1.7389191E-2,-4.923922E-2,6E1,1.0702566E-1,1.479E1,2.4025677E-2,6.839536E-2,4.7E-1,9.1E1,4.7E1,7.5278646E-1,8.106E1,1.69E0,2.8E1,1.4E0,1.3211E2,1.3906772E-2,-7.352092E-2,-4.9467523E-2,1.1813588E-1,-4.954371E-2,1.517E1,1.9520536E-2,1.053E2,1.3834442E-1,1.4410928E-2,9.256637E-2,4.9568158E-1,1.27E2,2.9198715E-2,3.0933946E-2,5E1,1.4989766E-1,1.1329231E-1,1.477168E-1,2.8144512E-2,8.851E1,1.4755878E-1,7E1,6.467E1,-6.21012E-2,4.8624404E-2,1.7526E2,2.5982624E1,-4.968198E-2,1.6002E2,1.5202366E-1,9.9079795E-2,3.194956E-2,1.5479197E-1,5.3E1,7.6911606E-2,8.787054E-2,1.5762308E-1,1E0,1.1726E2,1.309451E-1,8.154E1,2.1E1,1.1E-1,-4.9937855E-2,6.8E1,1.488E1,1.8034E2,2.4749923E-2,1.3886952E-1,3.6E1,1.16971135E-1,1.1839133E-1,3.942E1,1.04E2,8.1E1,1.28E2,7.076861E-2,1.6764E2,1.11E2,3.4451997E-3,8.8162996E-2,8.96E0,9.8E1,9.934937E-2,1.5496056E-1,1.5912612E-1,1.1559419E-1,1.5422405E-1,9.687982E-2,6.2E1,8.9E1,8.5E1,4.478042E-2,3.524027E-2,-4.9035843E-2,8.641846E-2,1.6159664E-1,-4.905769E-2,8.282885E-2,6.5E1,3.0870575E1,1.8435106E-1,1.9317152E-2,1.01415694E-1,1.4380908E-1,1.3E1,1.17470995E-1,1E0,9.940455E-2,1.3061038E-1,3E1,1.15E2,2.092484E1,3.257545E1,1.2336727E-2,8.1385665E-2,3.711111E1,2.6674705E-2,8.251068E-2,1.0587357E-1,2.2428541E1,-4.953138E-2,3.5524797E-2,2.9630993E-2,1.15E2,9.087302E-2,1.09E2,6.8E1,1.1158676E-1,1.4642821E-1,6.9925465E-2,1.89E0,-4.9977154E-2,1.5448189E-1,1.1440751E-1,8.053051E-2,1.02E2,1.5454015E-1,1.3192685E-1,-2.7524233E-2,1.02336615E-1,-4.6295725E-2,-2.3462735E-2,-2.7424771E-2,5.358821E-2,3.6563125E-2,-4.91801E-2,8.685169E-2,1.442759E-1,6.587251E-2,-9.019138E-3,-2.1417184E-2,1.0964533E-1,1.5522323E-3,-4.732861E-2,1.5972205E-1,1.3610668E-1,-4.9429916E-2,2.7915163E-2,9.623567E-2,-3.599721E-2,8.9419566E-2,-4.957073E-2,1.6042873E-1,8.744505E-2,1.18054055E-1,1.5679929E-1,8.57265E-2,-5.0045535E-2,1.2604955E-1,5.480074E-2,1.5104036E-1,1.0076675E-1,-4.326338E-3,-4.5871206E-2,1.4698252E-1,8.303704E-2,-4.9526107E-2,3.6051005E-2,1.4076924E-1,1.6579205E-1,1.5568036E-1,3.361285E-2,1.3017249E-1,1.6674294E-1,1.1202314E-1,1.4485255E-1],"split_indices":[5,10,5,12,19,56,60,58,0,63,79,16,25,0,56,104,114,4,12,15,11,64,2,4,97,0,97,14,0,97,0,0,113,105,59,4,0,0,125,2,101,0,119,97,12,11,104,27,0,125,99,25,58,110,0,106,12,0,0,0,0,0,0,0,0,84,3,0,0,25,119,124,0,4,0,4,119,85,124,15,84,4,112,0,30,0,93,0,125,124,37,0,58,0,0,0,79,114,129,0,4,0,0,0,89,124,0,59,0,25,0,0,28,99,0,125,60,21,115,28,74,0,116,0,0,0,25,0,11,0,0,0,121,99,0,0,64,0,0,0,0,74,0,19,81,118,0,2,4,0,2,0,0,0,0,102,0,0,0,6,74,0,102,0,35,0,104,25,2,0,0,75,0,0,53,90,113,99,0,2,79,118,0,77,64,0,0,0,0,0,0,61,12,16,126,0,0,0,0,0,0,0,4,128,125,0,0,101,0,6,0,0,64,97,4,4,0,125,33,116,0,0,4,0,0,0,79,0,104,104,0,0,0,28,0,125,0,0,90,0,0,0,0,0,0,0,0,0,0,0,0,0,0,0,0,0,0,0,0,0,0,0,0,0,0,0,0,0,0,0,0,0,0,0,0,0,0,0,0,0,0,0,0,0,0,0,0,0,0],"split_type":[0,0,0,0,0,0,0,0,0,0,0,0,0,0,0,0,0,0,0,0,0,0,0,0,0,0,0,0,0,0,0,0,0,0,0,0,0,0,0,0,0,0,0,0,0,0,0,0,0,0,0,0,0,0,0,0,0,0,0,0,0,0,0,0,0,0,0,0,0,0,0,0,0,0,0,0,0,0,0,0,0,0,0,0,0,0,0,0,0,0,0,0,0,0,0,0,0,0,0,0,0,0,0,0,0,0,0,0,0,0,0,0,0,0,0,0,0,0,0,0,0,0,0,0,0,0,0,0,0,0,0,0,0,0,0,0,0,0,0,0,0,0,0,0,0,0,0,0,0,0,0,0,0,0,0,0,0,0,0,0,0,0,0,0,0,0,0,0,0,0,0,0,0,0,0,0,0,0,0,0,0,0,0,0,0,0,0,0,0,0,0,0,0,0,0,0,0,0,0,0,0,0,0,0,0,0,0,0,0,0,0,0,0,0,0,0,0,0,0,0,0,0,0,0,0,0,0,0,0,0,0,0,0,0,0,0,0,0,0,0,0,0,0,0,0,0,0,0,0,0,0,0,0,0,0,0,0,0,0,0,0,0,0,0,0,0,0,0,0,0,0,0,0,0,0,0,0,0,0,0,0,0,0,0,0,0,0,0,0],"sum_hessian":[9.074108E3,6.7936133E3,2.2804954E3,6.100294E3,6.933194E2,1.5956217E3,6.848738E2,6.091706E3,8.587558E0,1.7838438E2,5.14935E2,9.1623267E2,6.7938904E2,2.4579918E2,4.3907462E2,6.059972E3,3.1734022E1,4.8169804E1,1.3021458E2,6.65914E1,4.483436E2,7.828955E1,8.379431E2,5.065905E2,1.7279852E2,7.6637607E0,2.3813542E2,4.284083E2,1.0666322E1,4.5794388E1,6.0141777E3,1.14064665E1,2.0327557E1,2.2032549E1,2.6137253E1,9.78703E1,3.2344284E1,1.794567E1,4.8645733E1,1.8208252E1,4.3013535E2,3.9970108E1,3.8319443E1,1.1895589E2,7.189872E2,4.2813666E2,7.845385E1,1.2894673E2,4.3851784E1,1.8599779E2,5.2137634E1,1.0759395E2,3.2081436E2,3.2043835E1,1.3750552E1,5.8262407E3,1.8793692E2,1.1917133E1,8.410422E0,1.1031933E1,1.1000617E1,1.2254872E1,1.3882381E1,9.236826E0,8.863348E1,1.4993373E1,3.365236E1,1.1169795E1,7.038457E0,2.6603308E1,4.0353204E2,3.125398E1,7.065463E0,1.1096031E2,7.995578E0,4.8163324E2,2.3735396E2,2.8205118E2,1.460855E2,5.846111E1,1.999274E1,6.870374E1,6.0242992E1,2.1779764E1,2.207202E1,1.5881618E2,2.7181606E1,7.469537E0,4.4668095E1,8.192376E1,2.5670189E1,1.3795206E2,1.8286229E2,2.4432713E1,7.6111226E0,8.621238E0,5.8176196E3,1.4147849E2,4.6458443E1,1.8363285E1,7.027019E1,7.9915695E0,7.0018034E0,1.3772227E1,1.9880133E1,1.6103899E1,1.0499409E1,3.9586572E2,7.666329E0,2.3163757E1,8.090223E0,1.0137639E1,1.0082267E2,8.176236E1,3.9987088E2,3.522376E1,2.021302E2,2.0798159E1,2.6125302E2,6.353622E1,8.254927E1,9.49307E0,4.896804E1,1.2835415E1,7.1573257E0,1.1167589E1,5.753615E1,8.574421E0,5.166857E1,1.2722388E1,9.34963E0,8.362024E0,1.5045416E2,1.965679E1,7.5248156E0,7.3603096E0,3.7307785E1,7.4622215E1,7.3015428E0,1.8105742E1,7.5644474E0,1.9791594E1,1.630707E2,5.5535225E3,2.6409714E2,1.2917639E2,1.2302098E1,1.733789E1,2.9120552E1,1.1417109E1,5.8853085E1,1.1858547E1,8.021586E0,7.322363E0,8.781536E0,3.8636447E2,9.501235E0,8.732014E0,1.4431744E1,2.114808E1,7.967459E1,9.928394E0,7.183397E1,6.398856E1,3.3588232E2,9.809387E0,2.5414371E1,1.2555114E2,7.657907E1,8.071817E0,1.2726342E1,2.540528E2,7.200208E0,7.1090117E0,5.6427208E1,4.6996258E1,3.5553013E1,3.905535E1,9.912688E0,3.1276611E1,2.625954E1,4.3028545E1,8.640028E0,8.2152306E1,6.830186E1,7.985598E0,1.1671191E1,2.2903399E1,1.4404387E1,1.168915E1,8.102443E0,6.711022E1,5.486412E3,1.23783806E2,1.4031332E2,7.1331606E0,1.2204322E2,8.811738E0,8.526153E0,1.5442023E1,1.367853E1,1.8029484E1,4.0823597E1,2.8896774E1,3.574677E2,1.1864622E1,9.283458E0,7.251129E1,7.163299E0,6.3802727E1,8.0312395E0,1.3267856E1,5.0720703E1,2.5423676E1,3.1045865E2,1.5790651E1,9.623721E0,2.6804855E1,9.8746284E1,6.7570015E1,9.009051E0,7.7147894E0,2.4633801E2,4.941436E1,7.0128455E0,7.5330544E0,3.9463203E1,1.2748936E1,2.2804075E1,3.1641739E1,7.413614E0,2.1335512E1,9.9411E0,1.5908376E1,1.0351164E1,3.2117714E1,1.09108305E1,9.151321E0,7.3000984E1,5.8463573E1,9.838282E0,5.528627E1,1.1823955E1,5.276172E3,2.1024039E2,8.29033E1,4.088051E1,7.0125794E0,1.3330074E2,8.735486E0,9.293999E0,2.5918749E1,1.4904849E1,2.1382118E1,7.5146546E0,2.3689209E1,3.337785E2,6.2867077E1,9.644215E0,4.065677E1,2.314596E1,8.204427E0,4.2516277E1,8.573453E0,1.6850222E1,2.2858032E1,2.8760062E2,7.121498E0,8.669153E0,1.7652187E1,9.152668E0,8.163853E1,1.7107754E1,5.9647728E1,7.9222903E0,6.6558205E1,1.797798E2,3.0459969E1,9.003237E0,1.5791554E1,7.0125213E0,9.395196E0,2.2246544E1,8.731226E0,7.1771502E0,9.944512E0,2.2173203E1,1.4727531E1,5.827345E1],"tree_param":{"num_deleted":"0","num_feature":"140","num_nodes":"289","size_leaf_vector":"1"}},{"base_weights":[-1.6156363E-1,-9.4509107E-1,2.012338E0,-1.03919E0,-1.2698673E-1,1.5069914E0,3.1995356E0,2.944984E0,-1.0513365E0,7.505498E-1,-5.620918E-1,9.043768E-1,1.9791564E0,2.7763097E0,3.362317E0,1.5739529E-1,7.402255E-2,-1.0657153E0,1.5201435E0,3.0654114E-1,1.7079295E0,-7.237872E-1,1.5502629E0,4.6861172E-1,2.0089805E0,2.5200326E0,1.6480427E0,1.7465518E0,3.0789149E0,2.8964908E0,3.3828006E0,-1.0948848E0,-6.0129967E-2,2.9329307E0,-4.8929088E-2,-9.44007E-1,8.53073E-1,2.070735E0,-4.9011823E-2,1.20396234E-1,-8.2064855E-1,1.4167751E-1,-4.8829623E-2,3.1737486E-1,2.5175555E0,2.6008644E0,-2.3639132E-1,8.303305E-1,2.669472E0,1.8008683E0,-1.5688537E-2,2.530656E0,-5.070393E-2,3.2157257E0,2.2406075E0,8.281035E-2,1.3140379E-1,3.3985913E0,9.407804E-2,-1.234236E0,-9.812567E-1,-7.676106E-1,8.344914E-1,1.5926011E-1,6.3369155E-2,-4.9003605E-2,3.599779E-2,1.2827902E0,-4.9209237E-2,2.7993584E0,7.526731E-1,-8.8738793E-1,1.07926905E-1,2.1675243E0,1.3375431E-1,3.5951946E-2,3.4934697E0,3.0138652E0,4.3510056E-1,1.0312281E-1,-4.982044E-2,-4.9844436E-2,2.5023732E0,1.5967432E0,2.8280663E0,2.4263222E0,1.5230016E0,1.4741771E0,-4.9062803E-2,1.4841025E-2,3.2506726E0,8.730305E-2,3.2817976E0,1.2337753E-1,2.3437714E-2,3.2823997E0,3.4965708E0,-1.2401578E0,3.4799684E-2,-1.0845065E0,-5.3140724E-1,-1.0788767E0,9.1090545E-2,1.7233685E0,-4.8800267E-2,1.4189309E-1,1.0065567E0,2.5220685E-2,3.3065E0,9.389579E-2,-4.9098514E-2,-9.564737E-1,1.0146616E-1,8.225346E-1,3.4633965E0,-1.928279E-2,2.1951604E0,1.09845266E-1,1.5907799E-1,2.168583E-2,3.1687436E0,9.296561E-2,-4.9991257E-2,7.799305E-2,1.2112827E-1,2.3567228E0,-4.980676E-2,1.4951804E0,2.9386692E0,2.9804943E0,1.8193504E0,-2.5473395E-1,1.6778401E0,1.0728676E-1,-4.9241357E-2,9.134332E-2,1.4071015E-1,3.0789533E0,3.5773494E0,9.2941456E-2,3.3333957E0,1.3582358E-1,1.1385842E-1,-1.246004E0,1.55859785E-2,-1.0955399E0,8.742153E-1,6.103271E-1,-7.843122E-1,-4.870722E-2,3.6988802E-2,-4.8877772E-2,2.4623768E0,1.4108957E0,-4.9020864E-2,3.7845335E0,7.8941986E-2,9.1519284E-1,-1.0252146E0,1.0755601E-1,-4.9757697E-2,9.8796315E-2,1.5256618E-1,-2.0358595E-1,1.6260545E0,-1.5093606E-3,1.4374758E-1,6.449078E-2,3.2975874E0,3.5142272E0,1.3121933E0,8.185297E-4,1.2175537E-1,3.3563309E0,2.6143386E0,1.776941E0,3.232395E0,2.2859988E0,-5.0243028E-2,-4.980207E-2,7.993353E-2,1.7873E0,-3.8911784E-1,3.296023E0,6.6295564E-2,1.6029644E-1,3.4598148E0,1.0552611E-1,3.3673813E0,-1.2519771E0,-2.7968588E-1,-1.1261024E0,-4.1321638E-1,-4.906337E-2,1.19892724E-1,-3.200798E-1,2.063677E0,-8.689543E-1,8.510674E-2,3.566386E0,6.7346525E-1,-5.501833E-3,1.7949585E0,1.6962808E-1,3.4735296E0,-4.8946403E-2,1.2107041E-1,-3.729567E-2,-1.1703994E0,6.8723094E-1,-5.7323414E-1,2.4787E0,-4.9489323E-2,8.863655E-2,3.416252E0,1.4997123E-1,1.1739238E-1,5.6575434E-3,1.1745749E-1,2.8724873E0,3.6563125E0,3.1835933E0,1.9128518E0,2.4120668E-2,1.1890369E-1,7.797619E-2,3.4142418E0,1.2657671E0,3.0842981E0,1.8823715E0,-4.9559664E-2,3.576625E-2,-5.0069302E-2,1.0019934E-1,3.4561074E0,1.2814619E-1,1.5373458E-1,3.2268744E0,1.3481322E-1,-4.854821E-2,-4.076034E-2,-4.885079E-2,3.6788687E-2,-3.2330632E-2,-4.5897573E-2,1.0041393E-1,-3.582483E-2,-4.8835717E-2,4.3261915E-2,1.2956482E-1,-9.335411E-3,-3.795527E-2,3.85379E-2,1.6183159E-1,8.991446E-2,-4.8796143E-2,1.1798189E-1,4.142034E-2,9.420592E-2,1.16023086E-1,1.4833255E-1,-4.8917055E-2,5.412518E-2,-4.6887986E-2,3.2587733E-2,6.566385E-2,-1.5573955E-2,-3.9007086E-2,1.4106116E-2,1.8432055E-2,1.2372E-1,1.3520433E-1,9.1832615E-2,1.2846653E-1,2.6767027E-2,1.45997E-1,1.1370246E-1,7.780545E-2,1.3591738E-1,9.928953E-2,-5.066383E-2,1.00513294E-1,1.3908559E-1,-4.977778E-2,1.04884766E-1,1.3526274E-1,8.698168E-2,1.1137135E-1,6.1566416E-2,1.3806146E-1,1.0601303E-1,9.9282146E-2,1.2682275E-1],"categories":[],"categories_nodes":[],"categories_segments":[],"categories_sizes":[],"default_left":[0,0,0,0,0,0,0,1,1,0,1,1,0,1,0,0,0,1,0,0,0,0,0,0,1,1,1,0,1,1,1,0,0,1,0,0,0,0,0,0,1,0,0,0,1,0,0,0,0,0,0,0,0,0,0,0,0,1,0,1,1,1,0,0,0,0,0,0,0,0,0,1,0,1,0,0,1,0,0,0,0,0,1,0,0,1,0,0,0,0,0,0,0,0,0,0,1,0,0,1,1,0,0,1,0,0,1,0,1,0,0,0,0,0,0,0,1,0,0,0,0,0,0,0,0,0,0,1,1,0,1,1,1,0,0,0,0,1,0,0,0,0,0,1,0,1,0,0,0,0,0,0,0,0,0,0,0,0,0,0,0,0,0,0,1,0,0,0,0,1,1,0,0,1,0,0,0,0,0,0,0,1,0,0,0,0,1,0,1,1,0,1,0,0,0,0,1,0,0,0,0,0,1,0,0,0,0,0,1,0,0,0,0,0,1,0,0,0,0,0,0,0,1,0,0,0,1,0,1,0,0,0,0,0,0,0,0,0,0,0,0,0,0,0,0,0,0,0,0,0,0,0,0,0,0,0,0,0,0,0,0,0,0,0,0,0,0,0,0,0,0,0,0,0,0,0,0,0,0,0,0,0,0,0,0,0,0,0,0,0,0,0,0],"id":2,"left_children":[1,3,5,7,9,11,13,15,17,19,21,23,25,27,29,-1,-1,31,33,35,37,39,41,43,45,47,49,51,53,55,57,59,61,63,-1,65,67,69,-1,-1,71,-1,-1,73,75,77,79,81,83,85,87,89,-1,91,93,-1,-1,95,-1,97,99,101,103,-1,-1,-1,-1,105,-1,107,109,111,-1,113,115,-1,117,119,121,-1,-1,-1,123,125,127,129,131,133,-1,-1,135,-1,137,-1,-1,139,141,143,-1,145,147,149,-1,151,-1,-1,153,-1,155,-1,-1,157,-1,159,161,163,165,-1,-1,-1,167,-1,-1,-1,-1,169,-1,171,173,175,177,179,181,-1,-1,-1,-1,183,185,-1,187,-1,-1,189,-1,191,193,195,197,-1,-1,-1,199,201,-1,203,-1,205,207,-1,-1,-1,-1,209,211,-1,-1,-1,213,215,217,-1,-1,219,221,223,225,227,-1,-1,-1,229,231,233,-1,-1,235,-1,237,239,241,243,245,-1,-1,247,249,251,-1,253,255,-1,257,-1,259,-1,-1,261,263,265,267,269,-1,-1,271,-1,-1,-1,-1,273,275,277,279,-1,-1,-1,281,283,285,287,-1,-1,-1,-1,289,-1,-1,291,-1,-1,-1,-1,-1,-1,-1,-1,-1,-1,-1,-1,-1,-1,-1,-1,-1,-1,-1,-1,-1,-1,-1,-1,-1,-1,-1,-1,-1,-1,-1,-1,-1,-1,-1,-1,-1,-1,-1,-1,-1,-1,-1,-1,-1,-1,-1,-1,-1,-1,-1,-1,-1,-1,-1],"loss_changes":[1.5463382E4,5.1372266E2,1.4429805E3,2.8962695E2,2.6283914E2,4.800249E2,4.9461426E1,2.1164474E1,2.2061621E2,9.69939E1,1.5718654E2,3.5675085E2,1.693999E2,6.2154175E1,4.9370117E0,0E0,0E0,1.7404248E2,1.3069043E2,1.0654315E2,7.811255E1,1.591546E2,1.9543462E2,1.6469199E2,2.7865326E2,9.069214E1,1.491853E2,1.0873396E2,1.767273E1,8.333115E0,7.4018555E0,9.130078E1,1.0586702E2,3.3931213E1,0E0,2.8995712E1,9.921078E1,6.1885834E1,0E0,0E0,1.00668884E2,0E0,0E0,1.6814648E2,5.653647E1,1.4841492E2,1.3417943E2,1.0356003E2,5.6135254E1,9.338574E1,9.234962E1,5.5730103E1,0E0,8.339233E0,3.3795624E1,0E0,0E0,5.54834E0,0E0,3.2761963E1,1.4752612E2,9.094446E1,1.3781857E2,0E0,0E0,0E0,0E0,5.968489E1,0E0,4.5157776E1,7.8081635E1,9.947302E1,0E0,7.788081E1,1.4204865E2,0E0,9.186737E0,5.2915405E1,9.078874E1,0E0,0E0,0E0,4.992157E0,9.327748E1,4.237549E1,5.559265E1,1.0242035E2,8.109376E1,0E0,0E0,9.43103E0,0E0,7.4177246E0,0E0,0E0,9.952393E0,3.3356934E0,2.4824463E1,0E0,5.5830322E1,1.7121005E2,3.1728218E1,0E0,1.1466162E2,0E0,0E0,7.449954E1,0E0,2.02211E1,0E0,0E0,5.166217E1,0E0,9.099281E1,1.0063232E1,1.27102806E2,1.0636929E2,0E0,0E0,0E0,2.5282959E1,0E0,0E0,0E0,0E0,4.0677032E1,0E0,5.3899353E1,3.594873E1,2.6187744E1,1.149158E2,7.1829865E1,7.743915E1,0E0,0E0,0E0,0E0,2.1708862E1,3.4014893E0,0E0,4.2871094E0,0E0,0E0,1.4853516E1,0E0,5.356836E1,6.932422E1,1.453949E2,1.228378E2,0E0,0E0,0E0,8.2168396E1,4.1000946E1,0E0,4.608734E0,0E0,6.9027725E1,5.555139E1,0E0,0E0,0E0,0E0,1.2411913E2,1.04709595E2,0E0,0E0,0E0,1.4321045E1,2.7899475E0,3.570002E1,0E0,0E0,1.6828735E1,5.966284E1,2.2466434E1,1.5734497E1,5.58916E1,0E0,0E0,0E0,9.492444E1,2.0578348E1,7.0876465E0,0E0,0E0,3.038269E0,0E0,3.5290527E0,3.0463867E0,1.9229597E1,4.485132E1,1.7107283E2,0E0,0E0,8.932261E1,1.2519563E2,1.0104175E2,0E0,1.9941437E1,7.3366E1,0E0,2.5689941E1,0E0,2.776001E0,0E0,0E0,8.791843E1,3.0377686E1,1.22311745E2,1.0943357E2,4.7517807E1,0E0,0E0,9.764038E0,0E0,0E0,0E0,0E0,4.4175354E1,6.444336E0,3.2589905E1,1.4254991E2,0E0,0E0,0E0,9.543518E0,1.1182756E2,1.3444214E1,9.080078E1,0E0,0E0,0E0,0E0,4.434265E0,0E0,0E0,3.6746216E0,0E0,0E0,0E0,0E0,0E0,0E0,0E0,0E0,0E0,0E0,0E0,0E0,0E0,0E0,0E0,0E0,0E0,0E0,0E0,0E0,0E0,0E0,0E0,0E0,0E0,0E0,0E0,0E0,0E0,0E0,0E0,0E0,0E0,0E0,0E0,0E0,0E0,0E0,0E0,0E0,0E0,0E0,0E0,0E0,0E0,0E0,0E0,0E0,0E0,0E0,0E0,0E0,0E0,0E0,0E0],"parents":[2147483647,0,0,1,1,2,2,3,3,4,4,5,5,6,6,7,7,8,8,9,9,10,10,11,11,12,12,13,13,14,14,17,17,18,18,19,19,20,20,21,21,22,22,23,23,24,24,25,25,26,26,27,27,28,28,29,29,30,30,31,31,32,32,33,33,35,35,36,36,37,37,40,40,43,43,44,44,45,45,46,46,47,47,48,48,49,49,50,50,51,51,53,53,54,54,57,57,59,59,60,60,61,61,62,62,67,67,69,69,70,70,71,71,73,73,74,74,76,76,77,77,78,78,82,82,83,83,84,84,85,85,86,86,87,87,90,90,92,92,95,95,96,96,97,97,99,99,100,100,101,101,103,103,106,106,108,108,111,111,113,113,114,114,115,115,116,116,120,120,125,125,127,127,128,128,129,129,130,130,131,131,132,132,137,137,138,138,140,140,143,143,145,145,146,146,147,147,148,148,152,152,153,153,155,155,157,157,158,158,163,163,164,164,168,168,169,169,170,170,173,173,174,174,175,175,176,176,177,177,181,181,182,182,183,183,186,186,188,188,189,189,190,190,191,191,192,192,195,195,196,196,197,197,199,199,200,200,202,202,204,204,207,207,208,208,209,209,210,210,211,211,214,214,219,219,220,220,221,221,222,222,226,226,227,227,228,228,229,229,234,234,237,237],"right_children":[2,4,6,8,10,12,14,16,18,20,22,24,26,28,30,-1,-1,32,34,36,38,40,42,44,46,48,50,52,54,56,58,60,62,64,-1,66,68,70,-1,-1,72,-1,-1,74,76,78,80,82,84,86,88,90,-1,92,94,-1,-1,96,-1,98,100,102,104,-1,-1,-1,-1,106,-1,108,110,112,-1,114,116,-1,118,120,122,-1,-1,-1,124,126,128,130,132,134,-1,-1,136,-1,138,-1,-1,140,142,144,-1,146,148,150,-1,152,-1,-1,154,-1,156,-1,-1,158,-1,160,162,164,166,-1,-1,-1,168,-1,-1,-1,-1,170,-1,172,174,176,178,180,182,-1,-1,-1,-1,184,186,-1,188,-1,-1,190,-1,192,194,196,198,-1,-1,-1,200,202,-1,204,-1,206,208,-1,-1,-1,-1,210,212,-1,-1,-1,214,216,218,-1,-1,220,222,224,226,228,-1,-1,-1,230,232,234,-1,-1,236,-1,238,240,242,244,246,-1,-1,248,250,252,-1,254,256,-1,258,-1,260,-1,-1,262,264,266,268,270,-1,-1,272,-1,-1,-1,-1,274,276,278,280,-1,-1,-1,282,284,286,288,-1,-1,-1,-1,290,-1,-1,292,-1,-1,-1,-1,-1,-1,-1,-1,-1,-1,-1,-1,-1,-1,-1,-1,-1,-1,-1,-1,-1,-1,-1,-1,-1,-1,-1,-1,-1,-1,-1,-1,-1,-1,-1,-1,-1,-1,-1,-1,-1,-1,-1,-1,-1,-1,-1,-1,-1,-1,-1,-1,-1,-1,-1],"split_conditions":[4E0,1E0,5E0,9.122E1,5.3E1,7.3E1,7.7E1,3.09E0,1.2353E2,3.7E1,1.31E2,1.432E1,6.92E0,8.1E-1,9E1,1.5739529E-1,7.402255E-2,7.894358E-2,1.722E1,1.4559485E-1,1.9223782E-1,3.45E1,5.5E1,4.171E1,6.475E1,5.8699326E1,1.2E2,3.3695957E-1,2.9E1,9.754E1,7.5156236E-1,3E0,3.688889E1,1.011E2,-4.8929088E-2,6.690796E-1,1.8034E2,9.922E1,-4.9011823E-2,1.20396234E-1,9.8E1,1.4167751E-1,-4.8829623E-2,4.1E1,4E1,1.7526E2,4.8E1,5.486596E-1,4E-1,8.8E1,-2.033543E-1,1.1574295E-1,-5.070393E-2,7.2E1,6.281083E-2,8.281035E-2,1.3140379E-1,-9.304951E-2,9.407804E-2,5.7E1,8.795E1,1.753E1,7.889919E1,1.5926011E-1,6.3369155E-2,-4.9003605E-2,3.599779E-2,6.2E1,-4.9209237E-2,9.8E1,1.126E1,7.443417E-1,1.07926905E-1,3.638889E1,8.8E1,3.5951946E-2,5.325E1,5.599932E1,4.7E1,1.0312281E-1,-4.982044E-2,-4.9844436E-2,6.9E1,6.4E1,-4.1974595E-1,3.527778E1,6.249E1,4.9E1,-4.9062803E-2,1.4841025E-2,2.1582845E-1,8.730305E-2,1.6E1,1.2337753E-1,2.3437714E-2,1.2144347E-2,1.02E2,9E1,3.4799684E-2,1.69E2,1.26E2,1.02E2,9.1090545E-2,5.8E1,-4.8800267E-2,1.4189309E-1,1.185E1,2.5220685E-2,-1.3948718E-2,9.389579E-2,-4.9098514E-2,3.1481124E-3,1.0146616E-1,9.9E1,1.1396988E-2,1.01E2,1.8345043E-1,1.09845266E-1,1.5907799E-1,2.168583E-2,4.8E1,9.296561E-2,-4.9991257E-2,7.799305E-2,1.2112827E-1,1.6002E2,-4.980676E-2,3.1E1,-1.6766918E-1,1.232E1,3.4E1,6.549365E-1,4.7398338E-1,1.0728676E-1,-4.9241357E-2,9.134332E-2,1.4071015E-1,1.05E2,7E1,9.2941456E-2,5.3359408E-2,1.3582358E-1,1.1385842E-1,1.44E2,1.55859785E-2,1.469E1,1.148E1,5.7E1,7.6E1,-4.870722E-2,3.6988802E-2,-4.8877772E-2,1.1853E2,4.6E1,-4.9020864E-2,3.538889E1,7.8941986E-2,1.2611E2,9.667E1,1.0755601E-1,-4.9757697E-2,9.8796315E-2,1.5256618E-1,1.6256E2,1.03E2,-1.5093606E-3,1.4374758E-1,6.449078E-2,4.8492163E-2,7E1,1.24E2,8.185297E-4,1.2175537E-1,2.4E1,6E0,1.27E2,6.8E1,3.736E1,-5.0243028E-2,-4.980207E-2,7.993353E-2,6.895E1,6.639933E1,-7.157287E-2,6.6295564E-2,1.6029644E-1,1.36E2,1.0552611E-1,8.431E1,6.8541914E-1,7.889919E1,5.35E0,3.5E1,-4.906337E-2,1.19892724E-1,9.3E1,3E0,8.3E1,8.510674E-2,1.7E1,6.0146964E-1,-5.501833E-3,7.379912E1,1.6962808E-1,2.8E1,-4.8946403E-2,1.2107041E-1,2.4E1,1.57E2,6.53E0,3.353E1,8.004E1,-4.9489323E-2,8.863655E-2,2.7142856E-2,1.4997123E-1,1.1739238E-1,5.6575434E-3,1.1745749E-1,9.88E1,6.8E1,1.04E2,7.4E1,2.4120668E-2,1.1890369E-1,7.797619E-2,4.7E1,1.2067E2,3.2168128E-2,1.817E1,-4.9559664E-2,3.576625E-2,-5.0069302E-2,1.0019934E-1,1.402E1,1.2814619E-1,1.5373458E-1,5.5E1,1.3481322E-1,-4.854821E-2,-4.076034E-2,-4.885079E-2,3.6788687E-2,-3.2330632E-2,-4.5897573E-2,1.0041393E-1,-3.582483E-2,-4.8835717E-2,4.3261915E-2,1.2956482E-1,-9.335411E-3,-3.795527E-2,3.85379E-2,1.6183159E-1,8.991446E-2,-4.8796143E-2,1.1798189E-1,4.142034E-2,9.420592E-2,1.16023086E-1,1.4833255E-1,-4.8917055E-2,5.412518E-2,-4.6887986E-2,3.2587733E-2,6.566385E-2,-1.5573955E-2,-3.9007086E-2,1.4106116E-2,1.8432055E-2,1.2372E-1,1.3520433E-1,9.1832615E-2,1.2846653E-1,2.6767027E-2,1.45997E-1,1.1370246E-1,7.780545E-2,1.3591738E-1,9.928953E-2,-5.066383E-2,1.00513294E-1,1.3908559E-1,-4.977778E-2,1.04884766E-1,1.3526274E-1,8.698168E-2,1.1137135E-1,6.1566416E-2,1.3806146E-1,1.0601303E-1,9.9282146E-2,1.2682275E-1],"split_indices":[5,10,5,18,87,12,65,56,11,87,96,25,56,21,13,0,0,118,63,126,128,34,12,53,102,3,111,117,27,60,117,5,33,95,0,119,2,18,0,0,60,0,0,85,87,2,15,119,21,93,116,129,0,15,128,0,0,116,0,27,11,25,3,0,0,0,0,78,0,22,25,119,0,36,0,0,60,3,31,0,0,0,107,107,122,36,60,31,0,0,119,0,25,0,0,119,106,0,0,96,97,62,0,107,0,0,14,0,124,0,0,125,0,23,118,15,129,0,0,0,31,0,0,0,0,2,0,27,116,63,57,123,123,0,0,0,0,111,96,0,126,0,0,79,0,25,98,0,55,0,0,0,95,0,0,33,0,95,95,0,0,0,0,2,111,0,0,0,117,83,79,0,0,27,54,15,64,53,0,0,0,102,3,116,0,0,96,0,60,119,3,112,65,0,0,111,29,0,0,27,117,0,3,0,54,0,0,27,111,14,53,60,0,0,124,0,0,0,0,18,106,96,92,0,0,0,65,95,123,63,0,0,0,0,25,0,0,55,0,0,0,0,0,0,0,0,0,0,0,0,0,0,0,0,0,0,0,0,0,0,0,0,0,0,0,0,0,0,0,0,0,0,0,0,0,0,0,0,0,0,0,0,0,0,0,0,0,0,0,0,0,0,0],"split_type":[0,0,0,0,0,0,0,0,0,0,0,0,0,0,0,0,0,0,0,0,0,0,0,0,0,0,0,0,0,0,0,0,0,0,0,0,0,0,0,0,0,0,0,0,0,0,0,0,0,0,0,0,0,0,0,0,0,0,0,0,0,0,0,0,0,0,0,0,0,0,0,0,0,0,0,0,0,0,0,0,0,0,0,0,0,0,0,0,0,0,0,0,0,0,0,0,0,0,0,0,0,0,0,0,0,0,0,0,0,0,0,0,0,0,0,0,0,0,0,0,0,0,0,0,0,0,0,0,0,0,0,0,0,0,0,0,0,0,0,0,0,0,0,0,0,0,0,0,0,0,0,0,0,0,0,0,0,0,0,0,0,0,0,0,0,0,0,0,0,0,0,0,0,0,0,0,0,0,0,0,0,0,0,0,0,0,0,0,0,0,0,0,0,0,0,0,0,0,0,0,0,0,0,0,0,0,0,0,0,0,0,0,0,0,0,0,0,0,0,0,0,0,0,0,0,0,0,0,0,0,0,0,0,0,0,0,0,0,0,0,0,0,0,0,0,0,0,0,0,0,0,0,0,0,0,0,0,0,0,0,0,0,0,0,0,0,0,0,0,0,0,0,0,0,0,0,0,0,0,0,0,0,0,0,0,0,0,0,0,0,0,0,0],"sum_hessian":[9.078422E3,6.6732275E3,2.4051943E3,5.9848447E3,6.883828E2,1.6870721E3,7.181222E2,1.8189543E1,5.9666553E3,2.2817944E2,4.602034E2,7.411549E2,9.459172E2,1.994854E2,5.186368E2,8.643191E0,9.546351E0,5.933478E3,3.3177135E1,1.5588547E2,7.229397E1,4.2748163E2,3.2721767E1,5.3148596E2,2.0966893E2,3.5918277E2,5.8673444E2,4.5308647E1,1.5417674E2,2.185106E1,4.9678574E2,5.766214E3,1.6726433E2,2.2019556E1,1.11575775E1,4.740761E1,1.0847786E2,6.4443436E1,7.8505306E0,1.0506975E1,4.1697464E2,1.8662514E1,1.4059254E1,4.9495364E2,3.6532345E1,1.6592981E2,4.373913E1,2.9186176E1,3.2999658E2,5.373733E2,4.9361145E1,3.606825E1,9.2403965E0,1.3254288E2,2.1633875E1,8.829052E0,1.3022008E1,4.886174E2,8.168335E0,2.5899429E3,3.176271E3,9.3401764E1,7.3862564E1,1.1437052E1,1.0582505E1,4.0394844E1,7.01277E0,9.025519E1,1.8222675E1,4.150055E1,2.2942888E1,4.0942184E2,7.5527887E0,4.4686184E1,4.5026746E2,1.3917698E1,2.2614647E1,1.3935483E2,2.6574966E1,1.1638491E1,3.210064E1,1.2862305E1,1.6323872E1,4.2505272E1,2.874913E2,1.6529654E2,3.7207672E2,2.2575388E1,2.6785759E1,9.061608E0,2.700664E1,8.592747E0,1.2395013E2,1.3642472E1,7.991403E0,2.2354938E2,2.6506802E2,2.5827832E3,7.1597266E0,2.5833386E3,5.929323E2,8.49495E1,8.452263E0,5.188989E1,2.1972675E1,9.334918E0,8.0920265E1,7.9339647E0,3.3566586E1,1.2538013E1,1.0404874E1,4.0153458E2,7.8872843E0,2.1928417E1,2.2757767E1,4.191504E2,3.1117071E1,1.11493225E1,1.1465323E1,8.280087E0,1.3107475E2,1.241445E1,1.4160518E1,9.29791E0,7.025962E0,3.3649128E1,8.856143E0,2.2029474E1,2.6546182E2,8.640431E1,7.889223E1,2.9810474E1,3.4226624E2,1.5306748E1,7.268639E0,8.354881E0,1.8651758E1,7.350962E1,5.0440502E1,1.2328151E1,2.1122122E2,2.5429048E2,1.0777542E1,2.5736323E3,9.15085E0,2.5688691E3,1.4469666E1,1.0752203E2,4.8541025E2,7.793783E1,7.011668E0,1.0283191E1,4.16067E1,6.871766E1,1.2202607E1,2.4337154E1,9.229433E0,1.4224009E1,3.8731055E2,1.1360451E1,1.05679655E1,8.008001E0,1.4749764E1,3.769296E2,4.2220802E1,1.2647121E1,1.846995E1,1.0385143E1,1.20689606E2,1.596021E1,1.768892E1,1.1669086E1,1.0360387E1,1.1603138E2,1.4943045E2,1.4955865E1,7.144845E1,6.863201E1,1.0260218E1,2.0626223E1,9.184253E0,3.2505292E2,1.7213324E1,6.3396584E1,1.0113039E1,8.536275E0,4.190423E1,1.1348434E1,1.9987279E2,2.5578206E3,1.581175E1,2.458736E3,1.1013308E2,7.3786073E0,7.091058E0,6.555498E1,4.1967052E1,4.7204703E2,1.3363232E1,2.5727846E1,1.5878855E1,1.3621063E1,5.5096596E1,8.20364E0,1.6133512E1,7.1743164E0,7.0496926E0,4.9627064E1,3.376835E2,1.105388E2,2.6639078E2,3.2649742E1,9.571061E0,1.279689E1,1.07892715E2,8.921954E0,7.0382557E0,1.0573063E1,7.1158557E0,4.4410885E1,7.162049E1,8.248799E1,6.694247E1,7.942878E0,7.0129867E0,9.324938E0,6.2123512E1,3.0129364E1,3.8502647E1,3.1529446E2,9.75846E0,7.0291867E0,1.0184137E1,1.181019E1,5.158639E1,3.3121574E1,8.782654E0,9.456371E1,1.05309074E2,2.4806157E3,7.720467E1,8.785428E0,7.026323E0,4.425398E2,2.0161962E3,1.6069204E1,9.406387E1,3.958611E1,2.5968868E1,2.688175E1,1.5085302E1,4.4475446E2,2.7292564E1,1.7066547E1,8.661298E0,8.758624E0,7.1202307E0,2.6032757E1,2.906384E1,7.1398735E0,8.993639E0,2.6761204E1,2.2865858E1,3.3036392E2,7.3195806E0,5.727652E1,5.3262283E1,1.8169778E2,8.4693E1,8.704556E0,2.3945187E1,9.949989E1,8.39282E0,3.67164E1,7.6944814E0,6.0746155E1,1.087434E1,1.8545761E1,6.394223E1,5.5570847E1,1.1371617E1,1.1811088E1,5.0312424E1,1.0916709E1,1.9212656E1,2.5548586E1,1.2954062E1,7.009876E1,2.4519571E2,4.4030483E1,7.55591E0,7.8987007E0,8.666501E1],"tree_param":{"num_deleted":"0","num_feature":"140","num_nodes":"293","size_leaf_vector":"1"}},{"base_weights":[-2.0695929E-1,8.926128E-1,-8.4376717E-1,3.4083164E-1,1.9922211E0,-9.512485E-1,3.7519848E-1,2.1440456E0,-4.390356E-2,1.7111009E0,2.6917284E0,-1.0523703E0,-1.3596623E-1,1.0690676E-1,2.3917527E0,2.5681615E0,5.811928E-1,-2.5876495E-1,1.5072627E0,1.9475883E0,2.6489124E-1,1.9034661E0,2.8864186E0,-1.0709745E0,1.7828192E0,-4.815117E-2,2.7005285E-1,1.821388E0,-1.6044648E-1,3.0483406E0,6.3411344E-4,-4.8901204E-2,2.667983E0,-6.2018216E-1,2.1706958E0,-4.2271215E-1,7.678177E-1,2.3290648E0,3.843395E-1,2.0236049E0,2.6829082E-1,1.2820146E0,-4.8851613E-2,2.4163065E0,-5.01078E-2,2.965531E0,1.6688062E0,5.1277816E-1,-1.0890957E0,3.0369613E0,-1.1777839E-3,8.646073E-2,2.3850808E0,3.203821E0,9.8641014E-1,5.983865E-1,-9.079254E-1,7.9765454E-2,1.279722E-1,3.074711E0,2.1203697E0,-4.8983432E-2,7.668161E-2,1.2498161E-1,7.359507E-1,-6.353141E-1,2.5755185E-1,2.1243587E0,-3.403234E-2,7.3717934E-1,2.6764512E0,-9.328709E-1,1.6768221E0,1.8672334E0,2.7169127E0,-5.0433837E-2,9.048485E-2,2.1044855E0,-4.923499E-2,2.9292295E0,3.6052097E-2,2.3175814E0,3.0740843E0,1.9789772E-2,1.1693563E-1,-4.856059E-2,2.110851E0,4.6436142E-2,-1.1131372E0,8.45733E-2,1.4891542E-1,8.4779876E-1,-4.1100687E-1,1.4820515E0,3.2705824E0,9.470817E-2,1.4253604E-1,-4.901769E-2,2.0163047E0,1.832286E0,-1.2960547E-1,-1.072318E0,8.8115275E-2,3.2589227E-2,3.1761765E0,2.7083998E0,1.0750561E0,9.928207E-2,-4.9907625E-2,-2.8497267E-1,-1.0066718E0,9.0877503E-1,-5.20125E-1,-4.8984185E-2,2.622033E0,1.7022555E0,-7.864187E-1,1.2294915E-1,-4.9111996E-2,1.4913492E0,2.9946747E0,3.3939317E-2,-4.8749473E-2,2.3214674E-1,2.7995567E0,1.3897339E0,2.205799E0,1.3416376E-2,2.9155128E0,-4.930184E-2,2.668486E0,7.095714E-2,1.2684587E-1,2.9852345E0,1.6484283E-2,2.9043436E0,3.3592658E0,3.1929138E0,1.0628815E-2,2.45592E0,-6.296934E-1,-1.1197542E0,8.2103744E-2,1.5049036E0,-6.195949E-1,-6.868551E-1,2.4547539E0,1.336861E-2,1.14311606E-1,9.226834E-2,1.5858452E-1,1.4574479E-1,3.390913E-2,-4.8772957E-2,2.2972884E0,-9.923432E-1,8.330254E-1,6.279413E-2,-4.85124E-2,7.88783E-2,3.2440357E0,3.2234214E-2,2.8911476E0,2.210865E0,-5.0198227E-2,-4.8068404E-2,7.2834074E-2,7.890439E-2,-1.0644828E0,1.3135172E0,-4.885062E-2,-7.9474384E-1,8.72169E-2,3.1955829E0,1.8236661E0,2.6855156E0,-4.9783085E-2,8.977535E-2,-1.0894984E0,1.1590474E-1,-5.017676E-2,3.1605754E0,6.904015E-2,1.1892069E-1,-4.9310185E-2,6.9639444E-2,1.3131863E-1,1.8808899E0,1.7492928E-1,2.3238904E0,7.4179786E-1,3.0522482E0,6.269595E-2,3.0595174E0,3.1092683E-2,3.4401855E0,8.2945734E-2,3.0201912E0,2.184293E0,1.3278113E-1,1.0193938E-1,1.4765118E-1,9.580707E-2,2.2058042E-2,1.434121E-1,6.9717354E-1,-4.825144E-2,-1.1294699E0,9.037535E-1,-4.9160656E-2,1.821313E0,6.1117582E-2,-4.889412E-2,1.1195234E-1,-8.1585395E-1,2.6682762E-2,1.3627538E-1,1.2893813E-2,2.6979218E0,3.416459E-2,-4.8404917E-2,1.8782886E0,-4.8929084E-2,-4.8495643E-2,1.13935865E-1,3.3125572E0,8.225478E-2,3.053622E0,7.0712596E-2,3.0900524E0,1.108813E-2,-6.734679E-2,2.866573E0,-1.2123345E0,-5.5192816E-1,1.0226464E0,3.0323658E0,6.1757557E-2,-1.0028636E0,9.363175E-2,3.5246155E0,4.466212E-3,2.8501184E0,3.5421018E-2,3.2068224E0,3.2298896E-2,-4.8795983E-2,1.2809187E-1,2.872836E0,2.2731671E0,8.510525E-1,-4.9723398E-2,1.6129045E0,1.2037063E-2,2.3929744E0,-4.915396E-2,1.1105071E-1,2.5893323E0,3.4760363E0,3.4732416E0,7.478582E-2,1.4790276E-1,1.1357897E-1,2.6595829E0,1.253137E-1,1.2687276E-1,2.7537178E-2,8.93436E-2,-4.830238E-2,-8.176346E-3,-1.1452404E0,9.8068215E-2,-4.825334E-2,2.2873776E0,-3.5715562E-1,9.523807E-1,-1.0142404E0,3.2497616E0,4.5965128E-2,5.7416284E-1,3.1180413E0,8.3710246E-2,1.3070089E-1,9.750733E-2,1.3021708E-1,1.3527904E-1,9.407643E-2,1.3534936E-1,-6.259882E-3,7.3041454E-2,1.5101881E-1,-4.828252E-2,2.7767997E-2,8.7827824E-2,-4.197801E-2,5.565203E-2,-1.0954674E-2,7.8992054E-2,1.4534625E-1,1.0586635E-2,-4.8414502E-2,1.22654356E-1,1.5539263E-1,8.7221675E-2,1.297261E-1,1.4487502E-1,1.0160189E-1,8.103586E-2,1.2691268E-1,5.9205357E-2,1.0974514E-1,5.144724E-2,-4.99167E-2,9.9426344E-2,-4.9957E-2,1.1521666E-1,8.367131E-2,4.0407974E-2,1.2236974E-1,1.288924E-1,1.6033885E-1,1.048502E-1,1.4610575E-1,1.1849911E-1,2.8601428E-2,-2.5294656E-2,1.20357364E-1,-4.4565145E-2,-4.8412494E-3,2.6958164E-2,1.0371551E-1,3.48806E-2,-4.9270857E-2,8.250514E-2,-4.866942E-2,-4.508392E-2,1.2649691E-2,8.532148E-2,1.3955377E-1,-4.855856E-2,1.1028165E-1,1.6132367E-1,8.162762E-2],"categories":[],"categories_nodes":[],"categories_segments":[],"categories_sizes":[],"default_left":[0,0,0,0,1,1,1,1,1,1,1,0,0,1,0,1,0,1,1,1,1,0,1,0,0,0,1,0,0,0,0,0,1,1,0,0,1,0,0,1,0,0,0,0,0,0,0,0,0,0,0,1,1,0,0,0,0,0,0,1,1,0,0,0,0,1,0,0,0,0,0,0,0,1,0,0,0,0,0,1,0,1,0,0,0,0,0,0,0,0,0,0,1,0,1,0,0,0,0,0,0,0,0,0,0,0,0,0,0,0,0,0,1,0,1,0,0,0,0,0,0,0,0,0,0,1,1,0,0,0,0,0,0,0,0,1,1,0,0,1,0,1,0,0,0,0,1,0,0,0,0,0,0,0,0,1,0,0,0,0,1,0,0,0,0,0,1,0,0,1,0,0,0,0,1,0,0,0,0,0,0,0,0,0,0,0,0,0,0,0,0,0,0,1,0,0,0,0,0,0,0,0,0,0,0,0,0,0,0,0,0,0,0,0,0,0,0,0,0,0,0,0,0,0,0,0,0,0,0,0,0,0,1,1,0,0,0,0,0,0,0,0,0,0,0,0,0,0,0,0,1,0,0,0,0,0,0,0,0,0,0,0,0,1,0,0,0,0,0,0,1,0,0,0,0,0,1,0,0,0,0,0,0,0,0,0,0,0,0,0,0,0,0,0,0,0,0,0,0,0,0,0,0,0,0,0,0,0,0,0,0,0,0,0,0,0,0,0,0,0,0,0,0,0,0,0,0,0,0,0,0,0,0,0,0,0,0,0,0,0,0,0,0],"id":3,"left_children":[1,3,5,7,9,11,13,15,17,19,21,23,25,27,29,31,33,35,37,39,41,43,45,47,49,-1,51,53,55,57,-1,-1,59,61,63,65,67,69,71,73,75,77,-1,79,-1,81,83,85,87,89,-1,91,93,95,97,99,101,-1,-1,103,105,-1,-1,-1,107,109,111,113,115,117,119,121,123,125,127,-1,-1,129,-1,131,-1,133,135,-1,-1,-1,137,139,141,-1,-1,143,145,147,149,-1,-1,-1,151,153,155,157,-1,-1,159,161,163,-1,-1,165,167,169,171,-1,173,175,177,-1,-1,179,181,-1,-1,183,185,187,189,-1,191,-1,193,-1,-1,195,-1,197,199,201,-1,203,205,207,-1,209,211,213,215,-1,-1,-1,-1,-1,-1,-1,217,219,221,223,-1,-1,225,-1,227,229,-1,-1,231,-1,233,235,-1,237,-1,239,241,243,-1,-1,245,-1,-1,247,-1,-1,-1,-1,-1,249,251,253,255,257,-1,259,-1,261,-1,263,265,-1,-1,-1,-1,-1,-1,267,-1,269,271,-1,273,-1,-1,-1,275,-1,-1,-1,277,-1,-1,279,-1,-1,-1,281,-1,283,-1,285,-1,287,289,291,293,295,297,-1,299,-1,301,-1,303,-1,305,-1,-1,-1,307,309,311,-1,313,-1,315,-1,-1,317,319,321,-1,-1,-1,323,-1,-1,-1,-1,-1,325,327,-1,-1,329,331,333,335,337,-1,339,341,-1,-1,-1,-1,-1,-1,-1,-1,-1,-1,-1,-1,-1,-1,-1,-1,-1,-1,-1,-1,-1,-1,-1,-1,-1,-1,-1,-1,-1,-1,-1,-1,-1,-1,-1,-1,-1,-1,-1,-1,-1,-1,-1,-1,-1,-1,-1,-1,-1,-1,-1,-1,-1,-1,-1,-1,-1,-1,-1,-1,-1,-1],"loss_changes":[6.21992E3,1.9766084E3,7.369822E2,1.5049246E3,2.1404443E2,4.2617236E2,2.465972E2,2.5282874E2,5.9584235E2,2.6555762E2,4.7880615E1,2.425747E2,2.574971E2,1.8439577E2,8.346878E1,1.14868774E2,1.554809E2,2.6428598E2,2.0071811E2,8.518652E1,1.6991493E2,1.0149878E2,2.40979E1,1.3112744E2,6.818396E1,0E0,1.6224258E2,6.2636932E1,1.9739735E2,1.1013977E1,0E0,0E0,6.512036E1,7.8488304E1,5.3703278E1,1.9582848E2,2.3521683E2,6.944855E1,1.5648586E2,6.920825E1,9.453901E1,1.3793616E2,0E0,4.049466E1,0E0,1.6517334E1,2.4026516E1,1.462981E2,1.2332178E2,1.2304459E1,0E0,1.4561122E2,2.667804E1,7.491272E0,7.863867E1,1.5512766E2,9.197821E1,0E0,0E0,3.796338E1,7.659961E1,0E0,0E0,0E0,5.575785E1,1.3421524E2,1.6328319E2,1.356867E2,1.7754404E2,1.1074394E2,3.8872925E1,2.7261364E1,7.524747E1,8.421399E1,5.5280945E1,0E0,0E0,9.4639496E1,0E0,1.5434692E1,0E0,4.2556244E1,9.729858E0,0E0,0E0,0E0,5.3959763E1,1.5258014E2,9.485791E1,0E0,0E0,1.465024E2,1.8381406E2,2.7772823E1,1.2420166E1,0E0,0E0,0E0,4.6522583E1,9.226315E1,9.020412E1,3.4980087E1,0E0,0E0,1.2320435E1,2.729663E1,1.21084465E2,0E0,0E0,1.824658E2,8.834192E1,1.5444977E2,1.1218948E2,0E0,3.207303E1,1.2089403E2,8.945768E1,0E0,0E0,9.213686E1,1.624646E1,0E0,0E0,8.730286E1,1.5663712E1,1.289549E2,5.2694824E1,0E0,1.9126465E1,0E0,3.0968018E1,0E0,0E0,9.465515E0,0E0,1.0515381E1,4.385071E0,7.675888E0,0E0,4.873723E1,6.0231926E1,8.679053E1,0E0,9.227312E1,6.703995E1,9.817317E1,3.8755302E1,0E0,0E0,0E0,0E0,0E0,0E0,0E0,4.3816803E1,2.8181076E1,1.1273653E2,8.902309E1,0E0,0E0,1.1532593E1,0E0,1.2491821E1,5.133522E1,0E0,0E0,1.514755E2,0E0,3.724341E1,7.395882E1,0E0,6.666168E1,0E0,1.0307861E1,5.1350082E1,2.849231E1,0E0,0E0,2.9130592E1,0E0,0E0,3.25177E0,0E0,0E0,0E0,0E0,0E0,6.217108E1,1.3095222E2,3.9202515E1,9.796255E1,1.9218262E1,0E0,1.629776E1,0E0,3.1334686E0,0E0,8.891541E0,2.8377296E1,0E0,0E0,0E0,0E0,0E0,0E0,7.35018E1,0E0,7.768994E1,7.441774E1,0E0,9.565988E1,0E0,0E0,0E0,7.182512E1,0E0,0E0,0E0,3.8468445E1,0E0,0E0,5.5420197E1,0E0,0E0,0E0,1.2121582E1,0E0,1.0636108E1,0E0,5.6351776E0,0E0,1.2490183E2,1.8829834E1,2.862915E1,1.6674863E2,6.935185E1,1.5477829E1,0E0,3.9561333E1,0E0,4.9488525E0,0E0,5.511093E0,0E0,7.4913177E0,0E0,0E0,0E0,8.1592865E0,4.6996887E1,4.3899467E1,0E0,8.794006E1,0E0,3.6316162E1,0E0,0E0,4.202716E1,4.70697E0,6.061676E0,0E0,0E0,0E0,3.313095E1,0E0,0E0,0E0,0E0,0E0,1.23347E2,4.2464844E1,0E0,0E0,4.935434E1,1.9257538E1,5.421026E1,3.806218E1,1.2886505E1,0E0,6.992221E1,1.8711319E1,0E0,0E0,0E0,0E0,0E0,0E0,0E0,0E0,0E0,0E0,0E0,0E0,0E0,0E0,0E0,0E0,0E0,0E0,0E0,0E0,0E0,0E0,0E0,0E0,0E0,0E0,0E0,0E0,0E0,0E0,0E0,0E0,0E0,0E0,0E0,0E0,0E0,0E0,0E0,0E0,0E0,0E0,0E0,0E0,0E0,0E0,0E0,0E0,0E0,0E0,0E0,0E0,0E0,0E0,0E0,0E0,0E0,0E0,0E0,0E0,0E0,0E0],"parents":[2147483647,0,0,1,1,2,2,3,3,4,4,5,5,6,6,7,7,8,8,9,9,10,10,11,11,12,12,13,13,14,14,15,15,16,16,17,17,18,18,19,19,20,20,21,21,22,22,23,23,24,24,26,26,27,27,28,28,29,29,32,32,33,33,34,34,35,35,36,36,37,37,38,38,39,39,40,40,41,41,43,43,45,45,46,46,47,47,48,48,49,49,51,51,52,52,53,53,54,54,55,55,56,56,59,59,60,60,64,64,65,65,66,66,67,67,68,68,69,69,70,70,71,71,72,72,73,73,74,74,77,77,79,79,81,81,82,82,86,86,87,87,88,88,91,91,92,92,93,93,94,94,98,98,99,99,100,100,101,101,104,104,105,105,106,106,109,109,110,110,111,111,112,112,114,114,115,115,116,116,119,119,120,120,123,123,124,124,125,125,126,126,128,128,130,130,133,133,135,135,136,136,137,137,139,139,140,140,141,141,143,143,144,144,145,145,146,146,154,154,155,155,156,156,157,157,160,160,162,162,163,163,166,166,168,168,169,169,171,171,173,173,174,174,175,175,178,178,181,181,187,187,188,188,189,189,190,190,191,191,193,193,195,195,197,197,198,198,205,205,207,207,208,208,210,210,214,214,218,218,221,221,225,225,227,227,229,229,231,231,232,232,233,233,234,234,235,235,236,236,238,238,240,240,242,242,244,244,248,248,249,249,250,250,252,252,254,254,257,257,258,258,259,259,263,263,269,269,270,270,273,273,274,274,275,275,276,276,277,277,279,279,280,280],"right_children":[2,4,6,8,10,12,14,16,18,20,22,24,26,28,30,32,34,36,38,40,42,44,46,48,50,-1,52,54,56,58,-1,-1,60,62,64,66,68,70,72,74,76,78,-1,80,-1,82,84,86,88,90,-1,92,94,96,98,100,102,-1,-1,104,106,-1,-1,-1,108,110,112,114,116,118,120,122,124,126,128,-1,-1,130,-1,132,-1,134,136,-1,-1,-1,138,140,142,-1,-1,144,146,148,150,-1,-1,-1,152,154,156,158,-1,-1,160,162,164,-1,-1,166,168,170,172,-1,174,176,178,-1,-1,180,182,-1,-1,184,186,188,190,-1,192,-1,194,-1,-1,196,-1,198,200,202,-1,204,206,208,-1,210,212,214,216,-1,-1,-1,-1,-1,-1,-1,218,220,222,224,-1,-1,226,-1,228,230,-1,-1,232,-1,234,236,-1,238,-1,240,242,244,-1,-1,246,-1,-1,248,-1,-1,-1,-1,-1,250,252,254,256,258,-1,260,-1,262,-1,264,266,-1,-1,-1,-1,-1,-1,268,-1,270,272,-1,274,-1,-1,-1,276,-1,-1,-1,278,-1,-1,280,-1,-1,-1,282,-1,284,-1,286,-1,288,290,292,294,296,298,-1,300,-1,302,-1,304,-1,306,-1,-1,-1,308,310,312,-1,314,-1,316,-1,-1,318,320,322,-1,-1,-1,324,-1,-1,-1,-1,-1,326,328,-1,-1,330,332,334,336,338,-1,340,342,-1,-1,-1,-1,-1,-1,-1,-1,-1,-1,-1,-1,-1,-1,-1,-1,-1,-1,-1,-1,-1,-1,-1,-1,-1,-1,-1,-1,-1,-1,-1,-1,-1,-1,-1,-1,-1,-1,-1,-1,-1,-1,-1,-1,-1,-1,-1,-1,-1,-1,-1,-1,-1,-1,-1,-1,-1,-1,-1,-1,-1,-1],"split_conditions":[6.1E1,1E0,3.0186322E-2,6.67E0,3.0945618E-2,8.2E1,8.1E1,9.8E1,2.8774783E-2,1.16E1,3.7E1,5.2E1,1E0,5.2304555E-2,7.859897E1,6.654E1,9.611E1,9.151E1,1.38E2,1.1793389E2,1.04E2,2.071E1,9.423077E-1,5.6E1,2.1E-1,-4.815117E-2,6.541008E-1,6.7E1,6.4E1,5E1,6.3411344E-4,-4.8901204E-2,3.5566666E1,4.32E0,8.5852565E-3,7.4E1,7.6E1,1.183E1,1.21E2,5.8E1,6.2E1,1E1,-4.8851613E-2,1.2782775E-1,-5.01078E-2,5.6E1,1.14E2,6E1,3.438889E1,3.3695957E-1,-1.1777839E-3,4.2E1,4.3945974E-1,4.2041072E-1,1.3E1,5E1,1.12E2,7.9765454E-2,1.279722E-1,1.524E2,1.06E2,-4.8983432E-2,7.668161E-2,1.2498161E-1,1.37E2,7.8E1,4.9E1,-1.5677728E-1,4.2E1,4.3E1,9.5E1,6.133E1,4.5E1,7.379912E1,3.19E0,-5.0433837E-2,9.048485E-2,1.241E1,-4.923499E-2,2.7E-1,3.6052097E-2,5E1,3.327591E-1,1.9789772E-2,1.1693563E-1,-4.856059E-2,2.1132172E-4,6.8E1,7E0,8.45733E-2,1.4891542E-1,9.6E1,1.4574843E2,5.5E1,1.657E1,9.470817E-2,1.4253604E-1,-4.901769E-2,1.5E1,7.3E1,6.9E1,9.73E0,8.8115275E-2,3.2589227E-2,-3.826488E-1,9.5E1,4.04E0,9.928207E-2,-4.9907625E-2,1E0,2.1E1,3E0,5E0,-4.8984185E-2,7.3E1,9E0,1.05E2,1.2294915E-1,-4.9111996E-2,1.651E2,4.8E1,3.3939317E-2,-4.8749473E-2,8.6E1,1.6E1,3.123E1,9.27E0,1.3416376E-2,9.5E1,-4.930184E-2,6.5E1,7.095714E-2,1.2684587E-1,-1.4494774E-2,1.6484283E-2,1.253E1,5.5E1,6.577082E1,1.0628815E-2,3.83E0,6.304927E1,3.7966667E1,8.2103744E-2,3.3271395E-2,9.6E1,-9.0441175E-2,1.557E1,1.336861E-2,1.14311606E-1,9.226834E-2,1.5858452E-1,1.4574479E-1,3.390913E-2,-4.8772957E-2,5.42771E-3,6.03E0,1.13E2,9.5E0,-4.85124E-2,7.88783E-2,5.7E1,3.2234214E-2,1.814E1,1.1E-1,-5.0198227E-2,-4.8068404E-2,4.9E1,7.890439E-2,1.39E2,6.3E1,-4.885062E-2,3.6E1,8.72169E-2,7.299909E1,7.9E1,3.75E1,-4.9783085E-2,8.977535E-2,6.6E1,1.1590474E-1,-5.017676E-2,4.8E1,6.904015E-2,1.1892069E-1,-4.9310185E-2,6.9639444E-2,1.3131863E-1,6.3499176E1,8.5E1,1.77E0,4.81457E-1,1.15E2,6.269595E-2,6.8E1,3.1092683E-2,8.2E1,8.2945734E-2,1.007E1,2.781E1,1.3278113E-1,1.0193938E-1,1.4765118E-1,9.580707E-2,2.2058042E-2,1.434121E-1,7.8E-1,-4.825144E-2,3.3E1,1.29E2,-4.9160656E-2,3.711111E1,6.1117582E-2,-4.889412E-2,1.1195234E-1,7E0,2.6682762E-2,1.3627538E-1,1.2893813E-2,7.711062E1,3.416459E-2,-4.8404917E-2,5.5E1,-4.8929084E-2,-4.8495643E-2,1.13935865E-1,2.4E1,8.225478E-2,4.3E1,7.0712596E-2,9.4E1,1.108813E-2,1.9E1,5.3E1,4.171E1,1.03E2,1.8034E2,1.27E2,6.1757557E-2,5.3199524E1,9.363175E-2,5.6E1,4.466212E-3,1.56E2,3.5421018E-2,2.3E1,3.2298896E-2,-4.8795983E-2,1.2809187E-1,2.5E1,5.809945E1,4.8E1,-4.9723398E-2,5E0,1.2037063E-2,4.1E1,-4.915396E-2,1.1105071E-1,6.2E1,1.3E2,3.6944443E1,7.478582E-2,1.4790276E-1,1.1357897E-1,4.5E1,1.253137E-1,1.2687276E-1,2.7537178E-2,8.93436E-2,-4.830238E-2,5.8E1,2.508E1,9.8068215E-2,-4.825334E-2,4.7E1,7.4E1,1E0,8.341257E-2,1.257E1,4.5965128E-2,3.7705555E1,1.108E1,8.3710246E-2,1.3070089E-1,9.750733E-2,1.3021708E-1,1.3527904E-1,9.407643E-2,1.3534936E-1,-6.259882E-3,7.3041454E-2,1.5101881E-1,-4.828252E-2,2.7767997E-2,8.7827824E-2,-4.197801E-2,5.565203E-2,-1.0954674E-2,7.8992054E-2,1.4534625E-1,1.0586635E-2,-4.8414502E-2,1.22654356E-1,1.5539263E-1,8.7221675E-2,1.297261E-1,1.4487502E-1,1.0160189E-1,8.103586E-2,1.2691268E-1,5.9205357E-2,1.0974514E-1,5.144724E-2,-4.99167E-2,9.9426344E-2,-4.9957E-2,1.1521666E-1,8.367131E-2,4.0407974E-2,1.2236974E-1,1.288924E-1,1.6033885E-1,1.048502E-1,1.4610575E-1,1.1849911E-1,2.8601428E-2,-2.5294656E-2,1.20357364E-1,-4.4565145E-2,-4.8412494E-3,2.6958164E-2,1.0371551E-1,3.48806E-2,-4.9270857E-2,8.250514E-2,-4.866942E-2,-4.508392E-2,1.2649691E-2,8.532148E-2,1.3955377E-1,-4.855856E-2,1.1028165E-1,1.6132367E-1,8.162762E-2],"split_indices":[80,10,127,56,127,12,61,111,127,56,94,38,9,128,3,11,11,11,97,3,111,98,121,104,35,0,119,19,110,31,0,0,32,28,117,0,113,25,13,61,0,101,0,117,0,65,111,65,37,117,0,55,117,117,115,24,106,0,0,2,78,0,0,0,97,111,24,120,31,19,65,11,94,3,105,0,0,91,0,35,0,103,119,0,0,0,124,104,45,0,0,113,3,61,56,0,0,0,115,104,12,25,0,0,122,100,14,0,0,9,64,7,26,0,83,29,13,0,0,2,80,0,0,23,30,53,56,0,12,0,0,0,0,124,0,56,55,3,0,28,3,32,0,117,22,124,25,0,0,0,0,0,0,0,130,56,13,25,0,0,82,0,77,35,0,0,55,0,79,12,0,55,0,3,104,37,0,0,104,0,0,24,0,0,0,0,0,3,12,56,117,13,0,93,0,104,0,14,53,0,0,0,0,0,0,35,0,103,97,0,33,0,0,0,30,0,0,0,3,0,0,31,0,0,0,82,0,82,0,90,0,0,82,53,90,2,90,0,3,0,0,0,90,0,61,0,0,0,38,3,12,0,101,0,55,0,0,103,83,37,0,0,0,61,0,0,0,0,0,31,14,0,0,0,114,57,124,25,0,32,25,0,0,0,0,0,0,0,0,0,0,0,0,0,0,0,0,0,0,0,0,0,0,0,0,0,0,0,0,0,0,0,0,0,0,0,0,0,0,0,0,0,0,0,0,0,0,0,0,0,0,0,0,0,0,0,0,0,0,0,0,0,0],"split_type":[0,0,0,0,0,0,0,0,0,0,0,0,0,0,0,0,0,0,0,0,0,0,0,0,0,0,0,0,0,0,0,0,0,0,0,0,0,0,0,0,0,0,0,0,0,0,0,0,0,0,0,0,0,0,0,0,0,0,0,0,0,0,0,0,0,0,0,0,0,0,0,0,0,0,0,0,0,0,0,0,0,0,0,0,0,0,0,0,0,0,0,0,0,0,0,0,0,0,0,0,0,0,0,0,0,0,0,0,0,0,0,0,0,0,0,0,0,0,0,0,0,0,0,0,0,0,0,0,0,0,0,0,0,0,0,0,0,0,0,0,0,0,0,0,0,0,0,0,0,0,0,0,0,0,0,0,0,0,0,0,0,0,0,0,0,0,0,0,0,0,0,0,0,0,0,0,0,0,0,0,0,0,0,0,0,0,0,0,0,0,0,0,0,0,0,0,0,0,0,0,0,0,0,0,0,0,0,0,0,0,0,0,0,0,0,0,0,0,0,0,0,0,0,0,0,0,0,0,0,0,0,0,0,0,0,0,0,0,0,0,0,0,0,0,0,0,0,0,0,0,0,0,0,0,0,0,0,0,0,0,0,0,0,0,0,0,0,0,0,0,0,0,0,0,0,0,0,0,0,0,0,0,0,0,0,0,0,0,0,0,0,0,0,0,0,0,0,0,0,0,0,0,0,0,0,0,0,0,0,0,0,0,0,0,0,0,0,0,0,0,0,0,0,0,0,0,0,0,0,0,0,0,0,0,0,0,0,0,0,0,0,0,0],"sum_hessian":[8.882855E3,3.257738E3,5.6251177E3,2.1692263E3,1.0885116E3,5.1693174E3,4.5579987E2,3.8144275E2,1.7877837E3,7.7646643E2,3.1204523E2,4.5989014E3,5.7041626E2,4.0227985E2,5.3520016E1,3.000235E2,8.1419235E1,1.5702764E3,2.1750734E2,6.673406E2,1.0912582E2,6.1808136E1,2.5023709E2,4.5689214E3,2.997987E1,1.5258614E2,4.1783017E2,5.426817E1,3.480117E2,4.192933E1,1.1590685E1,7.610062E0,2.9241345E2,4.637107E1,3.504817E1,1.3540355E3,2.1624083E2,1.255922E2,9.191514E1,6.384398E2,2.8900772E1,6.556388E1,4.356194E1,5.3275665E1,8.53247E0,2.3496864E2,1.52684555E1,5.1685516E1,4.517236E3,1.7722559E1,1.225731E1,3.8445886E2,3.3371296E1,2.0433834E1,3.3834335E1,1.7269377E2,1.7531792E2,8.994024E0,3.2935307E1,1.677878E2,1.2462564E2,3.7127697E1,9.243377E0,2.009076E1,1.4957406E1,1.0316246E3,3.224109E2,8.033419E1,1.3590665E2,2.2498447E1,1.0309375E2,4.552189E1,4.6393253E1,5.2094714E2,1.17492676E2,1.6433989E1,1.2466784E1,4.961191E1,1.5951965E1,3.957722E1,1.3698443E1,3.3719784E1,2.0124886E2,8.258158E0,7.0102973E0,2.4514921E1,2.7170595E1,9.365551E1,4.4235806E3,8.738991E0,8.983568E0,1.5193481E2,2.3252405E2,1.6523533E1,1.6847763E1,8.078078E0,1.2355756E1,1.0602281E1,2.3232056E1,6.408087E1,1.086129E2,1.6673E2,8.587913E0,7.302135E0,1.6048566E2,7.975717E1,4.486847E1,7.8510456E0,7.106361E0,5.3083484E2,5.0078976E2,1.7547218E2,1.4693872E2,1.0273659E1,7.006053E1,4.1087257E1,9.481938E1,1.0141538E1,1.2356911E1,2.1824253E1,8.126949E1,7.0188236E0,3.8503067E1,2.028858E1,2.6104673E1,2.1613089E2,3.0481625E2,9.087498E0,1.08405174E2,7.0905294E0,4.2521385E1,9.779962E0,2.979726E1,2.4918316E1,8.801467E0,1.2616569E2,7.508316E1,1.7092697E1,1.0077898E1,2.052195E1,7.313357E1,4.414568E3,9.012771E0,1.0494193E2,4.6992878E1,2.121081E2,2.0415962E1,9.350881E0,7.1726513E0,8.2266035E0,8.6211605E0,9.118387E0,1.4113668E1,8.366993E0,5.571388E1,5.7278805E1,5.13341E1,2.3345606E1,1.433844E2,9.077306E0,1.5140836E2,7.090542E0,7.2666626E1,3.035664E1,1.4511831E1,1.4405841E2,3.8677646E2,9.3107395E0,4.9147903E2,1.4793906E2,2.753313E1,1.337303E2,1.3208413E1,4.0768852E1,2.9291677E1,3.0925625E1,1.01616335E1,8.412252E0,8.640713E1,1.4156248E1,7.6680055E0,7.1437164E1,9.832331E0,7.0271025E0,1.3261477E1,9.85663E0,1.6248043E1,1.5390479E2,6.22261E1,2.8206308E2,2.2753185E1,9.8020386E1,1.03847885E1,3.51432E1,7.3781857E0,1.6133257E1,8.78506E0,1.0867738E2,1.748831E1,6.741415E1,7.669017E0,9.03328E0,8.059416E0,8.225988E0,1.2295961E1,2.3307203E1,4.982636E1,4.3934736E3,2.1094128E1,1.0727116E1,9.421481E1,1.0671819E1,3.6321056E1,7.3605547E0,2.0474754E2,7.740632E0,1.267533E1,9.443366E0,4.627051E1,7.013377E0,5.0265427E1,3.4279804E1,1.7054293E1,1.6027336E1,7.3182697E0,1.4262183E2,8.786538E0,6.299679E1,9.669836E0,2.0833443E1,9.523197E0,3.682969E2,1.8479551E1,3.8144476E2,1.1003428E2,1.26528915E2,2.1410137E1,1.0690581E1,1.2303972E2,1.2216638E1,2.8552216E1,1.0996323E1,1.8295355E1,7.044159E0,2.3881466E1,7.1945257E0,7.921261E1,4.6028793E1,2.5408371E1,1.11450356E2,4.2454433E1,3.083962E1,3.1386478E1,9.364063E0,2.72699E2,1.1706436E1,1.1046748E1,4.6850876E1,5.116951E1,2.567111E1,9.472088E0,9.009747E0,7.1235094E0,4.2006584E1,6.667079E1,9.990806E0,7.497504E0,1.2734568E1,1.0572637E1,6.093637E1,4.332537E3,1.1984216E1,9.109913E0,7.7610954E1,1.6603857E1,2.0653578E1,1.8409396E2,3.386616E1,1.240435E1,1.6707006E1,1.7572798E1,8.715718E0,1.339061E2,2.3845152E1,3.915164E1,1.2722675E1,8.110767E0,9.520637E0,3.5877625E2,9.575496E0,8.904057E0,3.739262E2,7.5185547E0,1.7528957E1,9.2505325E1,9.577675E1,3.0752167E1,9.142322E0,1.2267815E1,2.0257872E1,1.02781845E2,1.6905617E1,1.1646599E1,8.499942E0,9.795413E0,1.22200985E1,1.1661367E1,8.892086E0,1.6516285E1,4.8570778E1,6.2879578E1,3.466237E1,7.792063E0,2.3573889E1,7.812589E0,7.496628E1,1.9773273E2,1.2833037E1,3.401784E1,4.263764E1,8.531868E0,7.516479E0,1.815463E1,3.459162E1,7.414964E0,5.0486546E1,1.0449824E1,4.2920845E3,4.0452717E1,1.5619346E1,6.199161E1,7.001818E0,9.602038E0,1.3449936E1,7.2036414E0,1.6513821E2,1.8955746E1,8.836265E0,2.5029898E1,9.269074E0,7.437933E0,8.530888E0,9.04191E0],"tree_param":{"num_deleted":"0","num_feature":"140","num_nodes":"343","size_leaf_vector":"1"}},{"base_weights":[-2.0395339E-1,-9.1540235E-1,1.6895002E0,-1.0129197E0,-1.0231834E-1,1.2329265E0,2.7537935E0,2.4272795E0,-1.0252167E0,6.262188E-1,-5.5738306E-1,1.4668746E0,2.444777E-1,2.352954E0,2.8691025E0,1.3217331E-1,2.7229624E-2,-1.0398781E0,1.4133357E0,8.003712E-1,-4.915069E-2,-6.456933E-1,7.782408E-2,3.6862728E-1,1.6016538E0,1.4889334E0,-1.8694943E-1,2.473512E0,1.2708054E-2,2.9767013E0,2.7336338E0,-1.0520682E0,1.0354095E0,2.5985806E0,-4.8655536E-2,3.9572638E-1,1.8138084E0,-7.956652E-1,1.040629E0,1.2243605E0,-7.792645E-1,2.0534225E0,1.3057083E0,-4.9274232E-2,1.844053E0,-7.555547E-1,7.9556257E-1,4.2912927E-2,2.5955403E0,2.6215894E0,3.0098708E0,2.774205E0,6.712343E-2,-1.0745826E0,-2.5403142E-1,-4.174324E-1,1.0436292E-1,1.3521911E-1,5.8891654E-2,8.9540285E-1,-4.8456863E-2,2.444238E0,2.500949E-1,1.489097E0,-9.0176237E-1,2.4203E0,-4.8141263E-2,1.7847071E0,-4.8992265E-2,4.856754E-2,-4.8542444E-2,1.822753E0,2.7091382E0,1.1927875E0,2.462671E0,1.1868621E0,3.1986866E0,6.854978E-1,-1.1331571E0,2.5605483E0,2.8583035E-1,2.7339745E0,1.5195632E0,1.16801955E-1,7.2351895E-2,1.1910754E-1,2.8762345E0,2.8385746E0,1.9877867E0,-1.1039877E0,-5.6502897E-1,1.126431E-1,-4.9965385E-1,3.356647E-2,-4.89909E-2,2.0336976E0,4.6022832E-1,2.819107E0,2.2002423E-2,-4.9134877E-2,9.845886E-2,1.1856825E-1,1.2216862E-2,-9.785458E-1,5.5478405E-2,3.2178383E-2,1.2759012E-1,3.0338736E0,1.2382425E0,1.9739E0,-1.2319227E-1,5.031559E-2,2.8542588E0,1.4634045E0,5.2476275E-1,2.9482706E0,7.825096E-1,1.9689934E0,-4.8724752E-2,2.4967265E0,1.7821074E-1,2.394601E0,-4.8496004E-2,-4.857529E-2,3.4331657E-2,1.2993951E-1,6.782924E-2,2.368029E0,-6.2862647E-1,2.0064986E0,2.9002907E0,1.1491557E-1,1.4352722E-2,1.13071956E-1,8.711637E-2,2.781952E0,1.2331686E-1,1.1702626E-1,2.255266E-2,-1.1733518E0,-9.4568354E-1,-7.8274095E-1,1.6000938E0,4.0763244E-1,-1.0711031E0,7.995079E-3,2.7247775E0,1.84104E0,-1.1711382E-2,3.1659064E0,6.784334E-2,-1.0586143E0,5.1493756E-2,8.531255E-2,1.3905308E-1,2.0603716E0,-4.8962455E-2,2.0468817E0,-5.0109398E-2,-5.0835542E-2,8.2688525E-2,6.283302E-2,2.9770706E0,-3.92149E-1,1.6039414E0,-1.1312856E-1,1.8402386E0,2.5054467E0,3.7169485E0,-4.9350243E-2,1.1281503E-1,6.2188536E-1,2.9819899E0,7.943663E-2,1.1814753E-1,3.249965E-2,1.368931E-1,2.9049432E-2,1.2583399E-1,9.407393E-2,-4.9162883E-2,1.7955137E-2,1.1336879E-1,7.208143E-2,3.007614E0,7.665636E-2,2.8214161E0,-1.5200749E-1,-1.1855054E0,-1.0267414E0,6.0280994E-2,-1.0295883E0,3.679349E-1,-4.811351E-2,3.4177349E0,1.3527148E0,-4.814674E-2,3.4592927E-2,-4.7990534E-2,6.1485004E-2,1.339583E-1,3.1717695E-2,1.2836738E-1,-9.0467894E-1,1.1013073E0,3.544437E0,8.4378146E-2,-3.553904E-1,-1.1874421E0,1.0070287E0,3.2903554E0,7.2938335E-1,2.180897E0,7.261385E-2,3.0873573E0,-5.0424147E-2,5.0014514E-2,-4.961186E-2,1.6668417E0,-4.2594838E-1,1.299159E0,5.674103E-1,2.6461637E0,4.5755852E-2,3.322438E0,1.6534343E-1,1.2526573E-1,1.1603603E-1,-4.9031146E-2,1.3488287E-1,8.562998E-2,3.247411E0,2.7163303E0,1.1244999E-1,2.4872334E0,1.2713611E-1,-4.7932666E-2,-4.5908228E-2,3.5127893E-2,-4.074284E-2,3.801734E-2,1.0638551E-1,-1.7926762E-2,-4.7777534E-2,2.8292356E-2,7.298488E-2,-4.7875896E-2,8.82772E-2,1.7998077E-1,-4.818359E-2,9.665255E-2,-5.0179567E-2,-2.2012362E-2,3.4774237E-3,6.249329E-2,1.2065871E-1,1.507547E-1,6.871046E-2,-4.8009876E-2,-1.735345E-2,-4.7903616E-2,-4.9356677E-2,1.1553775E-1,1.5361193E-1,9.7554386E-2,9.005754E-2,-5.093706E-2,9.02494E-2,3.7083697E-2,1.3168208E-1,1.088785E-1,1.0066475E-1,5.822575E-2,-4.060977E-2,2.7351001E-2,-4.9028616E-2,1.0085522E-1,8.355677E-2,-4.960986E-2,1.17918156E-1,3.2044977E-2,1.4152355E-1,1.0606198E-1,1.2919328E-1,1.0346769E-1,1.1708847E-1,6.607214E-2,6.8244025E-2,1.1209126E-1],"categories":[],"categories_nodes":[],"categories_segments":[],"categories_sizes":[],"default_left":[0,0,0,0,0,1,0,1,1,1,1,0,0,1,1,0,0,1,1,1,0,1,0,0,0,1,0,0,0,0,1,1,0,0,0,1,0,0,0,1,0,1,1,0,0,0,0,0,0,0,0,0,0,0,0,0,0,0,0,0,0,0,1,0,0,0,0,0,0,0,0,1,0,1,1,0,0,0,0,0,0,0,0,0,0,0,1,0,0,0,0,0,0,0,0,1,0,0,0,0,0,0,0,0,0,0,0,1,1,1,1,0,0,1,1,0,0,0,0,0,0,0,0,0,0,0,0,0,0,0,0,0,0,0,0,0,0,0,0,0,1,0,0,0,0,0,0,0,0,0,0,0,0,0,0,0,0,0,0,0,0,0,0,0,0,1,0,1,0,0,0,0,0,0,0,0,0,0,0,0,0,0,0,0,0,0,1,0,1,1,1,1,0,0,0,0,0,0,0,0,0,0,0,1,1,0,0,0,0,1,0,1,1,0,0,0,0,0,0,0,0,0,0,0,0,0,0,0,0,0,0,1,0,0,0,0,0,0,0,0,0,0,0,0,0,0,0,0,0,0,0,0,0,0,0,0,0,0,0,0,0,0,0,0,0,0,0,0,0,0,0,0,0,0,0,0,0,0,0,0,0,0,0,0,0,0,0,0,0],"id":4,"left_children":[1,3,5,7,9,11,13,15,17,19,21,23,25,27,29,-1,-1,31,33,35,-1,37,-1,39,41,43,45,47,-1,49,51,53,55,57,-1,59,61,63,65,67,69,71,73,-1,75,77,79,-1,81,83,85,87,-1,89,91,93,-1,-1,-1,95,-1,97,99,101,103,105,-1,107,-1,-1,-1,109,111,113,115,117,119,121,123,125,127,129,131,-1,-1,-1,133,135,137,139,141,-1,143,-1,-1,145,147,149,-1,-1,-1,-1,-1,151,-1,-1,-1,153,155,157,159,-1,161,163,165,167,169,171,-1,173,-1,175,-1,-1,-1,-1,-1,177,179,181,183,-1,-1,-1,-1,185,-1,-1,-1,187,189,191,193,195,197,-1,199,201,203,205,-1,207,-1,-1,-1,209,-1,211,-1,-1,-1,-1,213,215,217,219,221,223,225,-1,-1,227,229,-1,-1,-1,-1,-1,-1,-1,-1,-1,-1,-1,231,-1,233,235,237,239,241,243,245,-1,247,249,-1,-1,-1,-1,-1,-1,-1,251,253,255,-1,257,259,261,263,265,267,-1,269,-1,-1,-1,271,273,275,277,279,-1,281,-1,-1,-1,-1,-1,-1,283,285,-1,287,-1,-1,-1,-1,-1,-1,-1,-1,-1,-1,-1,-1,-1,-1,-1,-1,-1,-1,-1,-1,-1,-1,-1,-1,-1,-1,-1,-1,-1,-1,-1,-1,-1,-1,-1,-1,-1,-1,-1,-1,-1,-1,-1,-1,-1,-1,-1,-1,-1,-1,-1,-1,-1,-1],"loss_changes":[1.1841766E4,5.066377E2,1.1666504E3,2.4136426E2,2.2686168E2,3.885193E2,3.33042E1,3.4905624E1,2.0325928E2,8.704921E1,9.574556E1,2.0109497E2,1.7263956E2,3.9281616E1,8.1484375E0,0E0,0E0,1.429624E2,1.0769423E2,9.882707E1,0E0,1.0298799E2,0E0,1.4587477E2,1.6178027E2,8.130669E1,1.3339401E2,2.5243103E1,0E0,3.6643066E0,9.987793E0,1.0094141E2,8.002339E1,2.2853912E1,0E0,1.4212305E2,6.7789154E1,9.065271E1,1.0499617E2,1.1889822E2,6.1866886E1,7.2434814E1,9.551282E1,0E0,6.530257E1,8.2300316E1,7.874432E1,0E0,2.07677E1,8.056641E0,2.9111328E0,1.2043579E1,0E0,8.1867676E1,1.2014139E2,1.9353786E1,0E0,0E0,0E0,6.5496124E1,0E0,3.4426086E1,6.927682E1,3.0807438E1,6.419498E1,2.915976E1,0E0,4.7416656E1,0E0,0E0,0E0,1.0421216E2,2.5411438E1,1.2041736E2,5.3037598E1,9.4639626E1,2.3862427E1,1.0424244E2,3.0452332E1,1.2693863E1,1.2932024E2,1.4942566E1,2.6608372E1,0E0,0E0,0E0,3.4588013E0,4.4375E0,2.6410988E1,5.6722168E1,1.4052238E2,0E0,7.418245E1,0E0,0E0,4.615692E1,6.233757E1,1.5019226E1,0E0,0E0,0E0,0E0,0E0,6.408099E1,0E0,0E0,0E0,9.899979E0,9.961775E1,7.852197E1,6.910158E1,0E0,1.7002441E1,1.23625854E2,1.6115454E2,1.715564E1,6.434134E1,5.1090485E1,0E0,3.961174E0,0E0,2.9888939E1,0E0,0E0,0E0,0E0,0E0,2.9883476E1,9.3392E1,3.300492E1,1.1135376E1,0E0,0E0,0E0,0E0,5.954956E0,0E0,0E0,0E0,4.458545E1,1.2833887E2,7.6940674E1,1.4094879E2,8.649939E1,2.9798424E1,0E0,2.2403214E1,3.6881805E1,7.085635E1,1.1399353E1,0E0,3.0296967E1,0E0,0E0,0E0,4.7148758E1,0E0,5.6779785E1,0E0,0E0,0E0,0E0,1.2396179E1,5.1533455E1,8.009973E1,5.713781E1,6.4330124E1,3.4499344E1,4.911026E0,0E0,0E0,7.254826E1,8.3602295E0,0E0,0E0,0E0,0E0,0E0,0E0,0E0,0E0,0E0,0E0,0E0,6.352051E0,0E0,5.5897217E0,1.587107E2,3.0879883E1,8.515918E1,1.6610117E2,8.1975784E1,1.1724604E2,0E0,2.340068E1,1.05472664E2,0E0,0E0,0E0,0E0,0E0,0E0,0E0,5.2294235E0,1.6625633E1,3.3435059E0,0E0,9.830084E1,1.1242584E1,8.9067444E1,8.823166E0,9.7634476E1,5.6190918E1,0E0,8.050354E0,0E0,0E0,0E0,6.416797E1,7.526043E1,7.9213684E1,7.199768E1,2.8550629E1,0E0,3.9012299E0,0E0,0E0,0E0,0E0,0E0,0E0,2.8307495E0,1.3124084E1,0E0,1.1775345E1,0E0,0E0,0E0,0E0,0E0,0E0,0E0,0E0,0E0,0E0,0E0,0E0,0E0,0E0,0E0,0E0,0E0,0E0,0E0,0E0,0E0,0E0,0E0,0E0,0E0,0E0,0E0,0E0,0E0,0E0,0E0,0E0,0E0,0E0,0E0,0E0,0E0,0E0,0E0,0E0,0E0,0E0,0E0,0E0,0E0,0E0,0E0,0E0,0E0,0E0,0E0,0E0,0E0,0E0],"parents":[2147483647,0,0,1,1,2,2,3,3,4,4,5,5,6,6,7,7,8,8,9,9,10,10,11,11,12,12,13,13,14,14,17,17,18,18,19,19,21,21,23,23,24,24,25,25,26,26,27,27,29,29,30,30,31,31,32,32,33,33,35,35,36,36,37,37,38,38,39,39,40,40,41,41,42,42,44,44,45,45,46,46,48,48,49,49,50,50,51,51,53,53,54,54,55,55,59,59,61,61,62,62,63,63,64,64,65,65,67,67,71,71,72,72,73,73,74,74,75,75,76,76,77,77,78,78,79,79,80,80,81,81,82,82,86,86,87,87,88,88,89,89,90,90,92,92,95,95,96,96,97,97,103,103,107,107,108,108,109,109,110,110,112,112,113,113,114,114,115,115,116,116,117,117,119,119,121,121,127,127,128,128,129,129,130,130,135,135,139,139,140,140,141,141,142,142,143,143,144,144,146,146,147,147,148,148,149,149,151,151,155,155,157,157,162,162,163,163,164,164,165,165,166,166,167,167,168,168,171,171,172,172,184,184,186,186,187,187,188,188,189,189,190,190,191,191,192,192,194,194,195,195,203,203,204,204,205,205,207,207,208,208,209,209,210,210,211,211,212,212,214,214,218,218,219,219,220,220,221,221,222,222,224,224,231,231,232,232,234,234],"right_children":[2,4,6,8,10,12,14,16,18,20,22,24,26,28,30,-1,-1,32,34,36,-1,38,-1,40,42,44,46,48,-1,50,52,54,56,58,-1,60,62,64,66,68,70,72,74,-1,76,78,80,-1,82,84,86,88,-1,90,92,94,-1,-1,-1,96,-1,98,100,102,104,106,-1,108,-1,-1,-1,110,112,114,116,118,120,122,124,126,128,130,132,-1,-1,-1,134,136,138,140,142,-1,144,-1,-1,146,148,150,-1,-1,-1,-1,-1,152,-1,-1,-1,154,156,158,160,-1,162,164,166,168,170,172,-1,174,-1,176,-1,-1,-1,-1,-1,178,180,182,184,-1,-1,-1,-1,186,-1,-1,-1,188,190,192,194,196,198,-1,200,202,204,206,-1,208,-1,-1,-1,210,-1,212,-1,-1,-1,-1,214,216,218,220,222,224,226,-1,-1,228,230,-1,-1,-1,-1,-1,-1,-1,-1,-1,-1,-1,232,-1,234,236,238,240,242,244,246,-1,248,250,-1,-1,-1,-1,-1,-1,-1,252,254,256,-1,258,260,262,264,266,268,-1,270,-1,-1,-1,272,274,276,278,280,-1,282,-1,-1,-1,-1,-1,-1,284,286,-1,288,-1,-1,-1,-1,-1,-1,-1,-1,-1,-1,-1,-1,-1,-1,-1,-1,-1,-1,-1,-1,-1,-1,-1,-1,-1,-1,-1,-1,-1,-1,-1,-1,-1,-1,-1,-1,-1,-1,-1,-1,-1,-1,-1,-1,-1,-1,-1,-1,-1,-1,-1,-1,-1,-1],"split_conditions":[4E0,1E0,5E0,9.122E1,5.8E1,1.14E2,7E1,4.66E0,1.2353E2,3.689E1,1.45E2,6.8E1,4.9E1,3E1,9.4E1,1.3217331E-1,2.7229624E-2,7.3E1,1.01E2,3.5734007E-1,-4.915069E-2,2.6830703E-1,7.782408E-2,1.939E1,6.75E0,3.9E1,9.097E1,3.5E1,1.2708054E-2,4.6457063E-2,2.818E1,7.894358E-2,5.7E1,4.8E1,-4.8655536E-2,9.912E1,1.5E2,3.0722221E1,9.2E1,2.9E1,5.23E1,8.762E1,2.419E1,-4.9274232E-2,1.72E1,3.6E1,4.7E1,4.2912927E-2,9.8E1,9.6E1,1.317E1,1.1768E2,6.712343E-2,5.8E1,4E0,1.0159093E-1,1.0436292E-1,1.3521911E-1,5.8891654E-2,1.59E2,-4.8456863E-2,3.3E1,1.0239893E2,9.1E1,6E1,5.5E1,-4.8141263E-2,5.1E1,-4.8992265E-2,4.856754E-2,-4.8542444E-2,1.08E1,2.8E1,1.3095495E-1,1E1,1.07311144E-1,1.47E2,1.1E1,2.5E1,1.54E2,8.9E1,4.2576388E-1,1.2903226E-3,1.16801955E-1,7.2351895E-2,1.1910754E-1,1.16598625E2,6E0,8.81E1,6.6E1,1.05E2,1.126431E-1,7.892E1,3.356647E-2,-4.89909E-2,8.1E1,5.8966946E1,7.6668495E-3,2.2002423E-2,-4.9134877E-2,9.845886E-2,1.1856825E-1,1.2216862E-2,2.0769231E0,5.5478405E-2,3.2178383E-2,1.2759012E-1,3.488E1,6E1,1.9E1,2.5212755E-2,5.031559E-2,1.0033E2,5.2899303E1,2.9E1,7E0,1.02E2,7.5E1,-4.8724752E-2,7.07287E-1,1.7821074E-1,1.22E2,-4.8496004E-2,-4.857529E-2,3.4331657E-2,1.2993951E-1,6.782924E-2,1.636E1,1.9077293E-3,7.8E1,6.2599365E1,1.1491557E-1,1.4352722E-2,1.13071956E-1,8.711637E-2,-9.3542033E-1,1.2331686E-1,1.1702626E-1,2.255266E-2,2.06E0,9.045E1,7.4E1,5.7E1,5.1E1,1.05E2,7.995079E-3,3.51E0,5.809945E1,6.6E1,3.33E0,6.784334E-2,-2.785996E-2,5.1493756E-2,8.531255E-2,1.3905308E-1,8.2E1,-4.8962455E-2,4.1E1,-5.0109398E-2,-5.0835542E-2,8.2688525E-2,6.283302E-2,3.577778E1,7.7E1,-3.473996E-1,3.6591478E-2,2.37E0,3.5E1,6.0499233E1,-4.9350243E-2,1.1281503E-1,1.004E1,1.2965E2,7.943663E-2,1.1814753E-1,3.249965E-2,1.368931E-1,2.9049432E-2,1.2583399E-1,9.407393E-2,-4.9162883E-2,1.7955137E-2,1.1336879E-1,7.208143E-2,6.104021E-2,7.665636E-2,1.14E2,9.285E1,8.11E0,2.1E1,3E1,1.11198616E2,1E1,-4.811351E-2,4E1,4.7E1,-4.814674E-2,3.4592927E-2,-4.7990534E-2,6.1485004E-2,1.339583E-1,3.1717695E-2,1.2836738E-1,8.129897E1,7.549924E1,5.7E1,8.4378146E-2,4.9E1,9.3E1,1.488E1,9.9E1,8.9E1,1.8181818E-2,7.261385E-2,4.9E1,-5.0424147E-2,5.0014514E-2,-4.961186E-2,5.2E1,7E1,7.5E1,6.1E1,1.18E2,4.5755852E-2,1.094E1,1.6534343E-1,1.2526573E-1,1.1603603E-1,-4.9031146E-2,1.3488287E-1,8.562998E-2,3.6583332E1,8.1E1,1.1244999E-1,4.72E0,1.2713611E-1,-4.7932666E-2,-4.5908228E-2,3.5127893E-2,-4.074284E-2,3.801734E-2,1.0638551E-1,-1.7926762E-2,-4.7777534E-2,2.8292356E-2,7.298488E-2,-4.7875896E-2,8.82772E-2,1.7998077E-1,-4.818359E-2,9.665255E-2,-5.0179567E-2,-2.2012362E-2,3.4774237E-3,6.249329E-2,1.2065871E-1,1.507547E-1,6.871046E-2,-4.8009876E-2,-1.735345E-2,-4.7903616E-2,-4.9356677E-2,1.1553775E-1,1.5361193E-1,9.7554386E-2,9.005754E-2,-5.093706E-2,9.02494E-2,3.7083697E-2,1.3168208E-1,1.088785E-1,1.0066475E-1,5.822575E-2,-4.060977E-2,2.7351001E-2,-4.9028616E-2,1.0085522E-1,8.355677E-2,-4.960986E-2,1.17918156E-1,3.2044977E-2,1.4152355E-1,1.0606198E-1,1.2919328E-1,1.0346769E-1,1.1708847E-1,6.607214E-2,6.8244025E-2,1.1209126E-1],"split_indices":[5,10,5,18,80,111,65,56,11,53,96,16,24,27,79,0,0,55,111,117,0,128,0,91,56,55,11,0,0,126,98,118,59,24,0,18,97,36,104,57,102,60,98,0,25,55,59,0,64,23,56,11,0,17,59,129,0,0,0,76,0,57,3,111,59,31,0,0,0,0,0,84,94,123,29,126,111,101,101,76,104,121,130,0,0,0,3,5,95,0,16,0,109,0,0,114,3,118,0,0,0,0,0,120,0,0,0,53,85,101,124,0,95,3,27,29,12,0,0,123,0,113,0,0,0,0,0,25,119,0,3,0,0,0,0,120,0,0,0,56,11,0,0,24,78,0,21,3,0,28,0,118,0,0,0,93,0,59,0,0,0,0,37,0,120,130,21,80,3,0,0,25,95,0,0,0,0,0,0,0,0,0,0,0,126,0,100,95,21,29,55,3,38,0,58,17,0,0,0,0,0,0,0,3,3,0,0,24,22,25,78,99,130,0,24,0,0,0,85,0,12,110,13,0,56,0,0,0,0,0,0,32,110,0,21,0,0,0,0,0,0,0,0,0,0,0,0,0,0,0,0,0,0,0,0,0,0,0,0,0,0,0,0,0,0,0,0,0,0,0,0,0,0,0,0,0,0,0,0,0,0,0,0,0,0,0,0,0,0],"split_type":[0,0,0,0,0,0,0,0,0,0,0,0,0,0,0,0,0,0,0,0,0,0,0,0,0,0,0,0,0,0,0,0,0,0,0,0,0,0,0,0,0,0,0,0,0,0,0,0,0,0,0,0,0,0,0,0,0,0,0,0,0,0,0,0,0,0,0,0,0,0,0,0,0,0,0,0,0,0,0,0,0,0,0,0,0,0,0,0,0,0,0,0,0,0,0,0,0,0,0,0,0,0,0,0,0,0,0,0,0,0,0,0,0,0,0,0,0,0,0,0,0,0,0,0,0,0,0,0,0,0,0,0,0,0,0,0,0,0,0,0,0,0,0,0,0,0,0,0,0,0,0,0,0,0,0,0,0,0,0,0,0,0,0,0,0,0,0,0,0,0,0,0,0,0,0,0,0,0,0,0,0,0,0,0,0,0,0,0,0,0,0,0,0,0,0,0,0,0,0,0,0,0,0,0,0,0,0,0,0,0,0,0,0,0,0,0,0,0,0,0,0,0,0,0,0,0,0,0,0,0,0,0,0,0,0,0,0,0,0,0,0,0,0,0,0,0,0,0,0,0,0,0,0,0,0,0,0,0,0,0,0,0,0,0,0,0,0,0,0,0,0,0,0,0,0,0,0,0,0,0,0,0,0,0,0,0,0,0,0],"sum_hessian":[8.79059E3,6.3897114E3,2.4008784E3,5.7054287E3,6.8428253E2,1.6801215E3,7.2075696E2,2.0320759E1,5.685108E3,2.6308838E2,4.2119415E2,1.3585709E3,3.2155057E2,1.6102402E2,5.59733E2,1.2863941E1,7.4568186E0,5.6511323E3,3.3975815E1,2.4099835E2,2.209004E1,4.0722427E2,1.3969884E1,1.4850316E2,1.2100677E3,8.277769E1,2.3877289E2,1.5196988E2,9.054138E0,3.1194403E2,2.4778893E2,5.6181323E3,3.2999763E1,2.3541943E1,1.043387E1,1.7223158E2,6.876677E1,3.7396667E2,3.32576E1,8.507896E1,6.3424202E1,4.7894247E2,7.3112524E2,9.418491E0,7.335919E1,1.5124466E2,8.752822E1,1.2501723E1,1.3946815E2,2.6655281E1,2.8528876E2,2.3807173E2,9.717202E0,5.46398E3,1.541524E2,1.7642511E1,1.5357254E1,1.2763617E1,1.0778326E1,1.3222481E2,4.000677E1,4.900778E1,1.9758993E1,1.6594444E1,3.5737222E2,2.0747774E1,1.2509826E1,6.947058E1,1.56083765E1,1.2063193E1,5.1361008E1,3.543072E2,1.24635284E2,6.66114E2,6.501124E1,4.9396687E1,2.3962505E1,3.1401953E1,1.1984271E2,1.9612837E1,6.791538E1,1.23568146E2,1.5900013E1,1.727666E1,9.378621E0,1.8128053E2,1.0400822E2,2.2005685E2,1.8014881E1,5.1658687E3,2.9811163E2,1.1074667E1,1.4307773E2,7.0265794E0,1.06159315E1,3.656818E1,9.565663E1,4.0838154E1,8.169621E0,1.1889054E1,7.869938E0,7.059229E0,9.535215E0,3.4601617E2,1.1356039E1,7.4360456E0,1.3311728E1,2.1140545E1,4.833004E1,3.2877106E2,2.5536156E1,1.1667383E1,1.129679E2,4.740672E2,1.9204684E2,5.043384E1,1.4577396E1,3.7441895E1,1.1954791E1,1.6035103E1,7.9274035E0,1.6703503E1,1.4698449E1,1.12836494E2,7.006219E0,9.781368E0,9.831469E0,2.0724926E1,4.7190456E1,2.2996136E1,1.00572014E2,7.0013247E0,8.898688E0,9.567158E1,8.336635E0,1.899421E2,3.0114763E1,1.0325845E1,7.6890364E0,3.5919668E3,1.5739016E3,2.7087488E2,2.7236742E1,5.529113E1,8.7786606E1,1.0038546E1,2.6529634E1,2.4365927E1,7.129071E1,3.0776587E1,1.0061569E1,3.3443945E2,1.1576728E1,8.647537E0,1.2493008E1,3.6395428E1,1.1934609E1,3.2159927E2,7.1717887E0,1.672359E1,8.812564E0,1.028733E1,1.0268057E2,3.3376694E1,4.406905E2,1.2933208E2,6.271477E1,3.2002045E1,1.8431795E1,7.4267015E0,7.150695E0,1.6071531E1,2.1370365E1,9.032881E0,7.0022216E0,7.1189284E0,9.584575E0,7.3783627E0,1.3346562E1,8.2044115E0,3.8986046E1,8.662583E0,1.4333552E1,9.47252E0,9.1099495E1,8.980312E0,1.8096178E2,4.2241203E1,3.5497256E3,1.4565387E3,1.1736301E2,2.2303033E2,4.7844543E1,1.0613315E1,1.6623428E1,3.519651E1,2.0094622E1,7.0760145E0,8.071059E1,1.0547727E1,1.5981907E1,1.4452328E1,9.913598E0,3.955603E1,3.1734676E1,2.2195168E1,8.581417E0,5.17832E1,2.8265625E2,1.9606571E1,1.6788858E1,2.9693624E1,2.9190564E2,9.3945E0,9.328607E1,2.1649485E1,1.1727211E1,9.388031E0,4.3130246E2,1.05880714E2,2.3451357E1,2.4315157E1,3.8399612E1,1.2237222E1,1.9764824E1,8.352731E0,1.0079065E1,7.110408E0,8.961123E0,1.2773089E1,8.597276E0,4.9960125E1,4.113937E1,1.4169556E2,3.9266224E1,1.0149489E1,3.2091717E1,3.5427102E3,7.0154643E0,1.4358008E3,2.0737837E1,1.912056E1,9.824245E1,1.9944006E2,2.3590261E1,2.4573242E1,2.3271301E1,8.719232E0,7.9041963E0,1.0802E1,2.4394508E1,1.8112015E1,2.1444017E1,1.0752432E1,2.0982244E1,1.0311756E1,1.1883412E1,1.5214801E1,3.6568398E1,1.9253674E1,2.634026E2,9.117115E0,1.0489457E1,8.808576E0,7.9802823E0,1.6655264E1,1.3038361E1,2.5846915E2,3.343649E1,4.1971294E1,5.1314777E1,6.1959064E1,3.693434E2,6.8221016E1,3.76597E1,7.9358373E0,1.5515521E1,1.3056582E1,1.1258575E1,3.1331814E1,7.067797E0,1.2341768E1,7.4230556E0,4.2425976E1,7.5341496E0,3.124587E1,9.893497E0,1.4429137E1,2.4837088E1],"tree_param":{"num_deleted":"0","num_feature":"140","num_nodes":"289","size_leaf_vector":"1"}},{"base_weights":[-1.650809E-1,-9.157982E-1,1.6632825E0,-1.0139717E0,-9.841126E-2,1.1910552E0,2.60061E0,2.031401E0,-1.0238581E0,2.244977E0,-2.2547223E-1,1.4533662E0,2.8188375E-1,2.3258355E0,2.6992261E0,2.2239324E-2,1.22566536E-1,-1.0529522E0,-2.2048569E-1,2.7048726E-2,2.6950593E0,-5.388517E-1,6.912023E-1,8.9172825E-2,1.5794531E0,1.6156733E0,-1.8475945E-1,2.3889012E0,2.1624396E-2,2.7389395E0,2.490598E0,1.06633395E-1,-1.0583932E0,1.2713088E0,-6.377343E-1,3.1112545E0,7.448752E-2,1.0395027E0,-6.838595E-1,1.1410248E0,-5.562333E-1,-9.593652E-1,1.0076429E0,3.7725025E-1,1.6988872E0,1.9327424E0,-4.84644E-2,9.891821E-2,-3.0644727E-1,2.5446358E0,1.8298587E0,2.7617605E0,2.3343918E0,5.65285E-2,2.609449E0,-1.2059542E0,-9.399596E-1,2.3152432E0,-4.805708E-2,-8.0545837E-1,5.5475727E-2,1.3547015E-1,1.0097449E-1,2.3422537E0,-4.7841545E-2,-9.3664414E-1,3.445734E-1,6.7293334E-1,2.3313465E0,1.1412538E-1,-4.882998E-2,3.601052E-2,-4.841306E-2,-5.708306E-1,1.9793444E0,2.318018E0,-2.0033666E-1,2.5133975E0,1.5743402E0,4.1967052E-1,2.3054004E0,-5.3626406E-1,1.1252548E0,2.7491188E0,2.085278E0,2.3775282E0,-5.135713E-2,1.0842275E-1,2.631127E0,1.0691004E-1,5.9877504E-2,1.09334804E-1,2.3320012E0,-1.2121985E0,2.325294E-3,-1.0882927E0,-6.84322E-1,1.5175233E-2,3.19477E0,8.521984E-1,-9.968698E-1,3.0077596E0,2.9210877E-2,-1.0541141E0,9.6053684E-1,1.935078E0,-6.7189723E-1,-4.8411965E-2,1.1153611E0,2.8378897E0,2.5177874E-2,-4.875114E-2,3.7654582E-2,2.5866847E0,1.0940362E-2,4.7199182E-2,1.2727118E-1,8.806502E-2,-6.4150196E-1,2.1050375E0,2.8987753E0,2.5117981E0,1.4566529E0,-4.8993643E-2,1.0715332E-1,2.551741E0,1.8002871E-2,-6.47438E-1,1.09206714E-1,2.2494316E0,-4.859115E-2,2.8396049E0,6.7469865E-2,1.3752867E-2,2.4433193E0,1.9137386E-2,2.8468132E0,1.03878565E-1,7.000942E-2,2.7155586E-2,2.679968E0,-1.2185369E0,-9.963245E-1,-1.103445E0,6.8674505E-2,9.720198E-2,-7.210322E-1,8.33262E-2,1.52911E-1,-4.8205618E-2,1.1831087E-1,3.393916E-2,-1.1088753E0,8.9360245E-2,1.4019446E-1,8.622626E-1,-1.1420422E0,-4.851322E-2,1.0810975E-1,1.0473249E0,1.24613866E-1,8.574797E-2,-4.7857963E-2,8.981241E-1,1.1644449E-1,3.3543334E0,7.43363E-2,3.168213E0,6.2360223E-2,-4.9211893E-2,2.4419387E-1,5.886487E-1,2.544418E0,3.0287237E0,8.673745E-2,2.6520267E0,2.5641575E-2,8.863399E-1,1.6407051E0,3.4907017E0,2.2296815E0,-8.182008E-1,1.5083652E0,2.4215173E-2,2.9573145E0,2.752871E0,1.3464926E-1,5.4954134E-2,1.0736112E-1,8.8829316E-2,1.2265415E-1,8.425186E-2,1.09885134E-1,-4.7282092E-2,-1.0103618E0,3.836954E-2,-4.7360364E-2,-6.335957E-2,-1.1416694E0,-8.056842E-1,4.322171E-1,-4.770992E-2,3.194327E-2,-4.7939513E-2,1.1137747E-1,-1.1890912E0,2.4881875E-2,-2.3494228E-3,1.1428715E-1,-2.7613947E-1,1.270109E0,1.4595634E-1,1.0892682E-1,1.3645989E-1,1.04123496E-1,7.726822E-1,-4.9823977E-2,1.0175165E-1,-4.99186E-2,2.2259097E0,1.1878447E-1,1.4076056E-1,2.9206383E0,2.1092598E0,2.8514137E0,-5.6796175E-1,1.2583368E0,2.0693965E0,1.1854546E0,1.488493E-1,1.1675702E-1,2.6920583E0,3.971176E-2,7.445605E-2,-9.505139E-1,1.2951972E-2,1.1752373E-1,9.667926E-2,1.279864E-1,2.8577425E0,7.008358E-2,-4.735622E-2,3.8348574E-2,7.049675E-2,-4.7470767E-2,-4.4680256E-2,5.5188662E-3,5.363724E-2,-3.259057E-2,-3.0560168E-2,5.7916395E-2,-4.77345E-2,2.4066987E-2,3.283915E-2,-4.995836E-2,9.666565E-2,3.3003192E-2,7.3852745E-4,6.294912E-2,1.14495255E-1,7.850051E-2,9.864112E-2,1.18429914E-1,1.244956E-1,3.716476E-2,1.1474836E-1,7.673121E-2,1.1518858E-1,-4.9614858E-2,6.464689E-2,-1.584168E-2,3.771053E-2,8.461472E-2,5.844397E-2,-9.80451E-3,7.930894E-2,1.1982856E-1,1.9102534E-2,-4.5130987E-2,8.6986154E-2,1.1273386E-1],"categories":[],"categories_nodes":[],"categories_segments":[],"categories_sizes":[],"default_left":[0,0,0,0,0,1,0,0,1,1,0,0,0,1,1,0,0,0,0,0,0,0,0,1,1,1,0,1,0,1,0,0,0,1,0,0,0,1,1,0,0,0,1,0,0,0,0,0,1,0,0,1,0,0,1,1,0,0,0,1,0,0,0,0,0,1,0,0,0,0,0,0,0,0,1,1,0,1,0,0,0,0,0,0,0,0,0,0,1,0,0,0,0,1,0,1,0,0,0,1,1,0,0,0,0,0,1,0,1,0,0,0,0,0,0,0,0,0,0,0,0,0,0,0,0,0,0,1,0,0,0,1,0,0,0,0,0,0,0,0,1,1,1,0,0,0,0,0,0,0,0,0,1,0,0,0,1,0,0,0,0,0,0,0,0,0,0,1,0,0,0,0,1,0,0,0,0,0,0,0,1,0,1,0,0,1,0,0,0,0,0,0,0,0,1,0,0,1,1,0,0,0,0,0,0,1,0,0,0,0,0,0,0,0,0,0,0,0,0,0,0,0,0,0,1,0,1,0,1,0,0,1,0,0,0,0,0,0,0,0,0,0,0,0,0,0,0,0,0,0,0,0,0,0,0,0,0,0,0,0,0,0,0,0,0,0,0,0,0,0,0,0,0,0,0,0,0,0,0,0,0],"id":5,"left_children":[1,3,5,7,9,11,13,15,17,19,21,23,25,27,29,-1,-1,31,33,-1,35,37,39,41,43,45,47,49,-1,51,53,-1,55,57,59,61,-1,63,65,67,69,71,73,75,77,79,-1,-1,81,83,85,87,89,-1,91,93,95,97,-1,99,-1,-1,-1,101,-1,103,105,107,109,-1,-1,-1,-1,111,113,115,117,119,121,123,125,127,129,131,133,135,-1,-1,137,-1,-1,-1,139,141,-1,143,145,-1,147,149,151,153,-1,155,157,159,161,-1,163,165,-1,-1,-1,167,-1,-1,-1,-1,169,171,173,175,177,-1,-1,179,-1,181,-1,183,-1,185,-1,-1,187,-1,189,-1,-1,-1,191,193,195,197,-1,-1,199,-1,-1,-1,-1,-1,201,-1,-1,203,205,-1,-1,207,-1,-1,-1,209,-1,211,-1,213,-1,-1,215,217,219,221,-1,223,-1,225,227,229,231,233,235,-1,237,239,-1,-1,-1,-1,-1,-1,-1,-1,241,-1,-1,243,245,247,249,-1,-1,-1,-1,251,-1,-1,-1,253,255,-1,-1,-1,-1,257,-1,-1,-1,259,-1,-1,261,263,265,267,269,271,273,-1,-1,275,-1,-1,277,-1,-1,-1,-1,279,-1,-1,-1,-1,-1,-1,-1,-1,-1,-1,-1,-1,-1,-1,-1,-1,-1,-1,-1,-1,-1,-1,-1,-1,-1,-1,-1,-1,-1,-1,-1,-1,-1,-1,-1,-1,-1,-1,-1,-1,-1],"loss_changes":[1.2050903E4,4.994585E2,1.1311821E3,1.6730225E2,1.9871933E2,4.0528687E2,2.3190918E1,2.994709E1,1.294585E2,2.3850403E1,1.8186182E2,2.268584E2,2.3684232E2,2.5174194E1,5.211426E0,0E0,0E0,1.1099121E2,1.2049174E2,0E0,8.451431E0,1.07980286E2,9.050339E1,1.0746603E2,1.7334888E2,8.980054E1,9.4269165E1,1.9001343E1,0E0,4.876953E0,1.2277954E1,0E0,9.327734E1,1.1115729E2,5.265409E1,3.3872528E0,0E0,1.1787625E2,1.1233258E2,6.604582E1,1.06509514E2,2.9110832E1,9.123935E1,1.2230392E2,1.1140161E2,5.00791E1,0E0,0E0,8.882057E1,1.6031494E1,8.235373E1,3.1242676E0,9.642151E0,0E0,5.598633E0,1.8791016E1,1.1227881E2,5.05484E1,0E0,4.4408737E1,0E0,0E0,0E0,2.6645218E1,0E0,7.729849E1,1.3782864E2,7.255853E1,2.8449661E1,0E0,0E0,0E0,0E0,2.4276518E1,3.7919205E1,2.6845627E1,9.208277E1,2.2913391E1,1.05086426E2,6.9899506E1,3.2279877E1,8.705067E1,1.0008879E2,1.06918335E1,3.255902E1,3.5800476E1,0E0,0E0,6.6639404E0,0E0,0E0,0E0,2.2844223E1,3.2331543E0,0E0,8.142627E1,1.2785028E2,0E0,1.6298279E1,6.740022E1,2.6370209E1,7.687256E0,0E0,5.503714E1,8.25719E1,3.8183334E1,8.5539345E1,0E0,2.8590225E1,1.2090973E1,0E0,0E0,0E0,1.5295502E1,0E0,0E0,0E0,0E0,4.0076485E1,4.711615E1,6.3306274E0,2.7518188E1,8.8832275E1,0E0,0E0,1.8994812E1,0E0,8.2893974E1,0E0,2.912996E1,0E0,6.093689E0,0E0,0E0,1.5042664E1,0E0,